<?xml version="1.0"?>
<opencv_storage>
<cascade>
  <stageType>BOOST</stageType>
  <featureType>HAAR</featureType>
  <height>24</height>
  <width>24</width>
  <stageParams>
    <boostType>GAB</boostType>
    <minHitRate>9.9500000476837158e-01</minHitRate>
    <maxFalseAlarm>1.0000000149011612e-01</maxFalseAlarm>
    <weightTrimRate>9.4999998807907104e-01</weightTrimRate>
    <maxDepth>1</maxDepth>
    <maxWeakCount>100</maxWeakCount></stageParams>
  <featureParams>
    <maxCatCount>0</maxCatCount>
    <featSize>1</featSize>
    <mode>BASIC</mode></featureParams>
  <stageNum>100</stageNum>
  <stages>
    <!-- stage 0 -->
    <_>
      <maxWeakCount>20</maxWeakCount>
      <stageThreshold>-1.7991417646408081e+00</stageThreshold>
      <weakClassifiers>
        <_>
          <internalNodes>
            0 -1 1067 -7.6149776577949524e-02</internalNodes>
          <leafValues>
            8.1818181276321411e-01 -9.2958259582519531e-01</leafValues></_>
        <_>
          <internalNodes>
            0 -1 768 -8.4043294191360474e-03</internalNodes>
          <leafValues>
            1.2351930886507034e-01 -7.8776663541793823e-01</leafValues></_>
        <_>
          <internalNodes>
            0 -1 1332 4.1251652874052525e-03</internalNodes>
          <leafValues>
            -5.4385137557983398e-01 3.2703068852424622e-01</leafValues></_>
        <_>
          <internalNodes>
            0 -1 1075 -3.4715239889919758e-03</internalNodes>
          <leafValues>
            5.6479662656784058e-01 -2.7872058749198914e-01</leafValues></_>
        <_>
          <internalNodes>
            0 -1 666 2.0154183730483055e-02</internalNodes>
          <leafValues>
            -2.4558787047863007e-01 5.0937736034393311e-01</leafValues></_>
        <_>
          <internalNodes>
            0 -1 1443 4.4083409011363983e-04</internalNodes>
          <leafValues>
            2.8330382704734802e-01 -4.8572379350662231e-01</leafValues></_>
        <_>
          <internalNodes>
            0 -1 871 9.9586732685565948e-03</internalNodes>
          <leafValues>
            -2.2988265752792358e-01 5.1860022544860840e-01</leafValues></_>
        <_>
          <internalNodes>
            0 -1 1235 1.7321211998932995e-05</internalNodes>
          <leafValues>
            2.7312630414962769e-01 -4.6199557185173035e-01</leafValues></_>
        <_>
          <internalNodes>
            0 -1 1031 -1.4576570130884647e-02</internalNodes>
          <leafValues>
            5.5050957202911377e-01 -2.4735836684703827e-01</leafValues></_>
        <_>
          <internalNodes>
            0 -1 559 -2.0224595573381521e-05</internalNodes>
          <leafValues>
            -3.9663770794868469e-01 2.6281327009201050e-01</leafValues></_>
        <_>
          <internalNodes>
            0 -1 755 4.7905288636684418e-02</internalNodes>
          <leafValues>
            -2.4011111259460449e-01 4.4872781634330750e-01</leafValues></_>
        <_>
          <internalNodes>
            0 -1 320 -2.9813446104526520e-02</internalNodes>
          <leafValues>
            6.1917936801910400e-01 -1.6346272826194763e-01</leafValues></_>
        <_>
          <internalNodes>
            0 -1 1201 -6.6161606810055673e-05</internalNodes>
          <leafValues>
            -4.2372927069664001e-01 2.7743265032768250e-01</leafValues></_>
        <_>
          <internalNodes>
            0 -1 269 7.2537059895694256e-03</internalNodes>
          <leafValues>
            1.2598036229610443e-01 -7.9084813594818115e-01</leafValues></_>
        <_>
          <internalNodes>
            0 -1 537 6.8816349084954709e-05</internalNodes>
          <leafValues>
            2.4627986550331116e-01 -3.9034360647201538e-01</leafValues></_>
        <_>
          <internalNodes>
            0 -1 632 -3.7324216100387275e-04</internalNodes>
          <leafValues>
            -3.9061310887336731e-01 2.6367661356925964e-01</leafValues></_>
        <_>
          <internalNodes>
            0 -1 1076 6.5210312604904175e-03</internalNodes>
          <leafValues>
            -1.8464982509613037e-01 5.5321305990219116e-01</leafValues></_>
        <_>
          <internalNodes>
            0 -1 170 1.6407035291194916e-02</internalNodes>
          <leafValues>
            -1.9536478817462921e-01 4.6470120549201965e-01</leafValues></_>
        <_>
          <internalNodes>
            0 -1 1159 -1.4272844964580145e-05</internalNodes>
          <leafValues>
            -3.8370361924171448e-01 2.6266247034072876e-01</leafValues></_>
        <_>
          <internalNodes>
            0 -1 1066 -6.6668399085756391e-05</internalNodes>
          <leafValues>
            -3.4350308775901794e-01 2.5192147493362427e-01</leafValues></_></weakClassifiers></_>
    <!-- stage 1 -->
    <_>
      <maxWeakCount>21</maxWeakCount>
      <stageThreshold>-1.6259899139404297e+00</stageThreshold>
      <weakClassifiers>
        <_>
          <internalNodes>
            0 -1 672 2.9998354613780975e-02</internalNodes>
          <leafValues>
            -9.3231439590454102e-01 5.5555558204650879e-01</leafValues></_>
        <_>
          <internalNodes>
            0 -1 953 2.3057593032717705e-02</internalNodes>
          <leafValues>
            -7.0317983627319336e-01 2.3301514983177185e-01</leafValues></_>
        <_>
          <internalNodes>
            0 -1 1100 -5.6374594569206238e-03</internalNodes>
          <leafValues>
            3.9155322313308716e-01 -3.4894701838493347e-01</leafValues></_>
        <_>
          <internalNodes>
            0 -1 564 4.2946003377437592e-03</internalNodes>
          <leafValues>
            1.0555946081876755e-01 -8.6486631631851196e-01</leafValues></_>
        <_>
          <internalNodes>
            0 -1 989 1.8500038422644138e-03</internalNodes>
          <leafValues>
            -2.3545373976230621e-01 4.3003299832344055e-01</leafValues></_>
        <_>
          <internalNodes>
            0 -1 297 1.5130921383388340e-05</internalNodes>
          <leafValues>
            2.4906685948371887e-01 -3.8769316673278809e-01</leafValues></_>
        <_>
          <internalNodes>
            0 -1 1002 -1.4319977723062038e-02</internalNodes>
          <leafValues>
            4.5496129989624023e-01 -2.3002542555332184e-01</leafValues></_>
        <_>
          <internalNodes>
            0 -1 944 -1.8006814643740654e-03</internalNodes>
          <leafValues>
            5.1220232248306274e-01 -1.9493980705738068e-01</leafValues></_>
        <_>
          <internalNodes>
            0 -1 151 -3.1490640249103308e-03</internalNodes>
          <leafValues>
            -6.8893527984619141e-01 1.5238493680953979e-01</leafValues></_>
        <_>
          <internalNodes>
            0 -1 1132 9.8242773674428463e-04</internalNodes>
          <leafValues>
            -1.4078064262866974e-01 6.5064418315887451e-01</leafValues></_>
        <_>
          <internalNodes>
            0 -1 1424 1.5815594815649092e-04</internalNodes>
          <leafValues>
            1.8231500685214996e-01 -5.4762506484985352e-01</leafValues></_>
        <_>
          <internalNodes>
            0 -1 476 -2.6134435087442398e-02</internalNodes>
          <leafValues>
            -9.6127367019653320e-01 9.8443381488323212e-02</leafValues></_>
        <_>
          <internalNodes>
            0 -1 540 -4.7778394073247910e-03</internalNodes>
          <leafValues>
            -5.8446049690246582e-01 1.3760681450366974e-01</leafValues></_>
        <_>
          <internalNodes>
            0 -1 833 -7.7432894613593817e-04</internalNodes>
          <leafValues>
            5.6024187803268433e-01 -2.0012639462947845e-01</leafValues></_>
        <_>
          <internalNodes>
            0 -1 365 2.1407680469565094e-04</internalNodes>
          <leafValues>
            3.0228441953659058e-01 -3.4671148657798767e-01</leafValues></_>
        <_>
          <internalNodes>
            0 -1 199 -3.3645825460553169e-03</internalNodes>
          <leafValues>
            -4.3443521857261658e-01 2.4991460144519806e-01</leafValues></_>
        <_>
          <internalNodes>
            0 -1 895 3.6388058215379715e-03</internalNodes>
          <leafValues>
            -1.7669861018657684e-01 6.1620104312896729e-01</leafValues></_>
        <_>
          <internalNodes>
            0 -1 983 1.1690238025039434e-03</internalNodes>
          <leafValues>
            -1.9763812422752380e-01 4.8457974195480347e-01</leafValues></_>
        <_>
          <internalNodes>
            0 -1 1047 -1.3330241665244102e-02</internalNodes>
          <leafValues>
            6.9722169637680054e-01 -1.3428156077861786e-01</leafValues></_>
        <_>
          <internalNodes>
            0 -1 404 -1.7310359908151440e-05</internalNodes>
          <leafValues>
            -4.0636444091796875e-01 2.7756911516189575e-01</leafValues></_>
        <_>
          <internalNodes>
            0 -1 345 -5.7573448866605759e-03</internalNodes>
          <leafValues>
            -7.8396880626678467e-01 1.3106098771095276e-01</leafValues></_></weakClassifiers></_>
    <!-- stage 2 -->
    <_>
      <maxWeakCount>32</maxWeakCount>
      <stageThreshold>-2.1230800151824951e+00</stageThreshold>
      <weakClassifiers>
        <_>
          <internalNodes>
            0 -1 998 2.6499081403017044e-02</internalNodes>
          <leafValues>
            -9.2820882797241211e-01 1.</leafValues></_>
        <_>
          <internalNodes>
            0 -1 1021 2.4375715292990208e-03</internalNodes>
          <leafValues>
            -6.9929826259613037e-01 1.8751776218414307e-01</leafValues></_>
        <_>
          <internalNodes>
            0 -1 888 1.3332134112715721e-03</internalNodes>
          <leafValues>
            -3.6179873347282410e-01 3.5491120815277100e-01</leafValues></_>
        <_>
          <internalNodes>
            0 -1 926 4.3014013208448887e-03</internalNodes>
          <leafValues>
            -2.4811893701553345e-01 3.9250195026397705e-01</leafValues></_>
        <_>
          <internalNodes>
            0 -1 314 5.4154603276401758e-04</internalNodes>
          <leafValues>
            2.9948720335960388e-01 -3.6513313651084900e-01</leafValues></_>
        <_>
          <internalNodes>
            0 -1 1034 9.0296333655714989e-04</internalNodes>
          <leafValues>
            -2.7708557248115540e-01 3.8069966435432434e-01</leafValues></_>
        <_>
          <internalNodes>
            0 -1 954 3.2128358725458384e-03</internalNodes>
          <leafValues>
            -2.3909027874469757e-01 4.3595314025878906e-01</leafValues></_>
        <_>
          <internalNodes>
            0 -1 903 -6.4741359092295170e-03</internalNodes>
          <leafValues>
            -6.7393732070922852e-01 1.9252564013004303e-01</leafValues></_>
        <_>
          <internalNodes>
            0 -1 380 1.7149868654087186e-03</internalNodes>
          <leafValues>
            -3.1950286030769348e-01 3.2383716106414795e-01</leafValues></_>
        <_>
          <internalNodes>
            0 -1 1457 -3.8356182631105185e-03</internalNodes>
          <leafValues>
            -7.4653279781341553e-01 1.6688826680183411e-01</leafValues></_>
        <_>
          <internalNodes>
            0 -1 254 6.6714943386614323e-03</internalNodes>
          <leafValues>
            7.6307713985443115e-02 -9.7045785188674927e-01</leafValues></_>
        <_>
          <internalNodes>
            0 -1 510 3.5646826028823853e-02</internalNodes>
          <leafValues>
            4.1570141911506653e-02 -9.2414915561676025e-01</leafValues></_>
        <_>
          <internalNodes>
            0 -1 491 -6.2947841361165047e-03</internalNodes>
          <leafValues>
            5.3943479061126709e-01 -1.7586477100849152e-01</leafValues></_>
        <_>
          <internalNodes>
            0 -1 569 1.6041098162531853e-02</internalNodes>
          <leafValues>
            1.0049129277467728e-01 -8.7996655702590942e-01</leafValues></_>
        <_>
          <internalNodes>
            0 -1 550 -4.5370887964963913e-03</internalNodes>
          <leafValues>
            -3.2433602213859558e-01 2.5258874893188477e-01</leafValues></_>
        <_>
          <internalNodes>
            0 -1 261 6.9938644766807556e-02</internalNodes>
          <leafValues>
            1.2347847968339920e-01 -8.3660793304443359e-01</leafValues></_>
        <_>
          <internalNodes>
            0 -1 774 4.3218191713094711e-03</internalNodes>
          <leafValues>
            -2.0275071263313293e-01 4.7218629717826843e-01</leafValues></_>
        <_>
          <internalNodes>
            0 -1 731 -1.1064646765589714e-02</internalNodes>
          <leafValues>
            -8.0628544092178345e-01 1.0909859091043472e-01</leafValues></_>
        <_>
          <internalNodes>
            0 -1 1254 1.4976505190134048e-03</internalNodes>
          <leafValues>
            -2.5370225310325623e-01 3.3956998586654663e-01</leafValues></_>
        <_>
          <internalNodes>
            0 -1 1038 2.9285658150911331e-02</internalNodes>
          <leafValues>
            -1.4424264430999756e-01 5.4341477155685425e-01</leafValues></_>
        <_>
          <internalNodes>
            0 -1 385 1.5487233176827431e-02</internalNodes>
          <leafValues>
            1.3824161887168884e-01 -6.0565823316574097e-01</leafValues></_>
        <_>
          <internalNodes>
            0 -1 843 1.7679397016763687e-02</internalNodes>
          <leafValues>
            -1.4718247950077057e-01 6.0642051696777344e-01</leafValues></_>
        <_>
          <internalNodes>
            0 -1 1093 6.1069704592227936e-02</internalNodes>
          <leafValues>
            1.0237692296504974e-01 -9.3622678518295288e-01</leafValues></_>
        <_>
          <internalNodes>
            0 -1 1306 -7.5361400842666626e-02</internalNodes>
          <leafValues>
            -8.7430888414382935e-01 6.8031243979930878e-02</leafValues></_>
        <_>
          <internalNodes>
            0 -1 484 6.6566208261065185e-05</internalNodes>
          <leafValues>
            1.5626089274883270e-01 -4.4978502392768860e-01</leafValues></_>
        <_>
          <internalNodes>
            0 -1 1103 2.3538062814623117e-03</internalNodes>
          <leafValues>
            -1.8267951905727386e-01 4.6133264899253845e-01</leafValues></_>
        <_>
          <internalNodes>
            0 -1 1118 4.3193865567445755e-03</internalNodes>
          <leafValues>
            2.4109648168087006e-01 -3.0611568689346313e-01</leafValues></_>
        <_>
          <internalNodes>
            0 -1 1144 3.1333365477621555e-03</internalNodes>
          <leafValues>
            -1.5792001783847809e-01 5.6640803813934326e-01</leafValues></_>
        <_>
          <internalNodes>
            0 -1 1008 1.9974843598902225e-03</internalNodes>
          <leafValues>
            1.8096597492694855e-01 -4.6733155846595764e-01</leafValues></_>
        <_>
          <internalNodes>
            0 -1 978 -2.1586790680885315e-02</internalNodes>
          <leafValues>
            6.1035317182540894e-01 -1.3122242689132690e-01</leafValues></_>
        <_>
          <internalNodes>
            0 -1 1084 2.8772600926458836e-03</internalNodes>
          <leafValues>
            -1.4032001793384552e-01 5.0394999980926514e-01</leafValues></_>
        <_>
          <internalNodes>
            0 -1 1059 -9.6521973318886012e-05</internalNodes>
          <leafValues>
            -3.7693840265274048e-01 2.3649922013282776e-01</leafValues></_></weakClassifiers></_>
    <!-- stage 3 -->
    <_>
      <maxWeakCount>37</maxWeakCount>
      <stageThreshold>-1.9242656230926514e+00</stageThreshold>
      <weakClassifiers>
        <_>
          <internalNodes>
            0 -1 949 9.3384951353073120e-02</internalNodes>
          <leafValues>
            -9.2750996351242065e-01 1.</leafValues></_>
        <_>
          <internalNodes>
            0 -1 866 -1.1089836061000824e-01</internalNodes>
          <leafValues>
            6.2779301404953003e-01 -6.5201914310455322e-01</leafValues></_>
        <_>
          <internalNodes>
            0 -1 180 1.9315053522586823e-01</internalNodes>
          <leafValues>
            -2.8348985314369202e-01 4.8565188050270081e-01</leafValues></_>
        <_>
          <internalNodes>
            0 -1 516 -2.9378575272858143e-03</internalNodes>
          <leafValues>
            -5.7781678438186646e-01 1.5485666692256927e-01</leafValues></_>
        <_>
          <internalNodes>
            0 -1 1428 1.8847526516765356e-03</internalNodes>
          <leafValues>
            9.8338335752487183e-02 -7.6601302623748779e-01</leafValues></_>
        <_>
          <internalNodes>
            0 -1 1176 5.8606651145964861e-04</internalNodes>
          <leafValues>
            1.5354277193546295e-01 -5.6660515069961548e-01</leafValues></_>
        <_>
          <internalNodes>
            0 -1 1379 -4.0913675911724567e-04</internalNodes>
          <leafValues>
            1.8822836875915527e-01 -3.5961839556694031e-01</leafValues></_>
        <_>
          <internalNodes>
            0 -1 130 -1.6268463432788849e-01</internalNodes>
          <leafValues>
            8.1804883480072021e-01 -1.0342664271593094e-01</leafValues></_>
        <_>
          <internalNodes>
            0 -1 375 -7.3854131624102592e-03</internalNodes>
          <leafValues>
            -7.6820987462997437e-01 1.1700885742902756e-01</leafValues></_>
        <_>
          <internalNodes>
            0 -1 306 1.0478766635060310e-02</internalNodes>
          <leafValues>
            -2.6522654294967651e-01 3.0893659591674805e-01</leafValues></_>
        <_>
          <internalNodes>
            0 -1 1211 4.4970627641305327e-04</internalNodes>
          <leafValues>
            1.1941904574632645e-01 -6.0470461845397949e-01</leafValues></_>
        <_>
          <internalNodes>
            0 -1 678 -2.5283629656769335e-04</internalNodes>
          <leafValues>
            2.5802397727966309e-01 -2.8628841042518616e-01</leafValues></_>
        <_>
          <internalNodes>
            0 -1 1266 3.2033729366958141e-03</internalNodes>
          <leafValues>
            7.6707303524017334e-02 -9.0301787853240967e-01</leafValues></_>
        <_>
          <internalNodes>
            0 -1 855 5.6023248471319675e-03</internalNodes>
          <leafValues>
            5.8005981147289276e-02 -8.3891540765762329e-01</leafValues></_>
        <_>
          <internalNodes>
            0 -1 556 -4.2337825288996100e-04</internalNodes>
          <leafValues>
            2.8690826892852783e-01 -2.4267815053462982e-01</leafValues></_>
        <_>
          <internalNodes>
            0 -1 1370 -5.7368697598576546e-03</internalNodes>
          <leafValues>
            -5.5533081293106079e-01 1.1972899734973907e-01</leafValues></_>
        <_>
          <internalNodes>
            0 -1 1353 4.6159271150827408e-03</internalNodes>
          <leafValues>
            7.3917657136917114e-02 -8.0483120679855347e-01</leafValues></_>
        <_>
          <internalNodes>
            0 -1 605 -8.6390897631645203e-03</internalNodes>
          <leafValues>
            5.9721654653549194e-01 -1.2654066085815430e-01</leafValues></_>
        <_>
          <internalNodes>
            0 -1 769 2.1443635225296021e-02</internalNodes>
          <leafValues>
            -1.2976074218750000e-01 4.9750900268554688e-01</leafValues></_>
        <_>
          <internalNodes>
            0 -1 156 -1.2225891649723053e-01</internalNodes>
          <leafValues>
            -4.7990140318870544e-01 1.5698999166488647e-01</leafValues></_>
        <_>
          <internalNodes>
            0 -1 730 9.6597131341695786e-03</internalNodes>
          <leafValues>
            7.2904102504253387e-02 -8.1283980607986450e-01</leafValues></_>
        <_>
          <internalNodes>
            0 -1 1135 -1.9343806430697441e-02</internalNodes>
          <leafValues>
            -6.6613572835922241e-01 7.6038986444473267e-02</leafValues></_>
        <_>
          <internalNodes>
            0 -1 327 3.7087600678205490e-02</internalNodes>
          <leafValues>
            1.2899906933307648e-01 -4.6639218926429749e-01</leafValues></_>
        <_>
          <internalNodes>
            0 -1 804 8.9651823043823242e-02</internalNodes>
          <leafValues>
            -1.1037973314523697e-01 6.6899365186691284e-01</leafValues></_>
        <_>
          <internalNodes>
            0 -1 975 -7.3538888245820999e-03</internalNodes>
          <leafValues>
            -9.1769838333129883e-01 8.3822205662727356e-02</leafValues></_>
        <_>
          <internalNodes>
            0 -1 1358 -3.1509291147813201e-05</internalNodes>
          <leafValues>
            1.8285135924816132e-01 -3.2998532056808472e-01</leafValues></_>
        <_>
          <internalNodes>
            0 -1 1400 -2.9679504223167896e-03</internalNodes>
          <leafValues>
            -7.5190019607543945e-01 9.3878030776977539e-02</leafValues></_>
        <_>
          <internalNodes>
            0 -1 1032 -1.9154752953909338e-04</internalNodes>
          <leafValues>
            -4.2324486374855042e-01 1.3789671659469604e-01</leafValues></_>
        <_>
          <internalNodes>
            0 -1 469 1.2839512899518013e-02</internalNodes>
          <leafValues>
            -1.9484640657901764e-01 3.2601621747016907e-01</leafValues></_>
        <_>
          <internalNodes>
            0 -1 274 1.1267155641689897e-03</internalNodes>
          <leafValues>
            7.9788520932197571e-02 -7.9967260360717773e-01</leafValues></_>
        <_>
          <internalNodes>
            0 -1 528 -9.0303748846054077e-02</internalNodes>
          <leafValues>
            -8.5424423217773438e-01 5.6491874158382416e-02</leafValues></_>
        <_>
          <internalNodes>
            0 -1 667 -1.1526969028636813e-03</internalNodes>
          <leafValues>
            5.0138396024703979e-01 -1.3580013811588287e-01</leafValues></_>
        <_>
          <internalNodes>
            0 -1 1163 5.1314773736521602e-04</internalNodes>
          <leafValues>
            1.6744486987590790e-01 -3.8580417633056641e-01</leafValues></_>
        <_>
          <internalNodes>
            0 -1 1087 -1.3742251321673393e-03</internalNodes>
          <leafValues>
            3.3291015028953552e-01 -1.8205329775810242e-01</leafValues></_>
        <_>
          <internalNodes>
            0 -1 1158 -2.1740852389484644e-03</internalNodes>
          <leafValues>
            -6.8807071447372437e-01 9.5721453428268433e-02</leafValues></_>
        <_>
          <internalNodes>
            0 -1 932 -6.4136497676372528e-03</internalNodes>
          <leafValues>
            -8.8057821989059448e-01 5.5499698966741562e-02</leafValues></_>
        <_>
          <internalNodes>
            0 -1 911 5.8337907830718905e-05</internalNodes>
          <leafValues>
            2.2835667431354523e-01 -2.9569107294082642e-01</leafValues></_></weakClassifiers></_>
    <!-- stage 4 -->
    <_>
      <maxWeakCount>100</maxWeakCount>
      <stageThreshold>-3.4257743358612061e+00</stageThreshold>
      <weakClassifiers>
        <_>
          <internalNodes>
            0 -1 1188 -2.9228706844151020e-03</internalNodes>
          <leafValues>
            -4.8648649454116821e-01 -9.6069180965423584e-01</leafValues></_>
        <_>
          <internalNodes>
            0 -1 47 2.0439896616153419e-04</internalNodes>
          <leafValues>
            -8.7053114175796509e-01 -2.2629357874393463e-02</leafValues></_>
        <_>
          <internalNodes>
            0 -1 716 1.8124785274267197e-03</internalNodes>
          <leafValues>
            -5.9405928850173950e-01 3.8190841674804688e-01</leafValues></_>
        <_>
          <internalNodes>
            0 -1 995 -8.6699088569730520e-05</internalNodes>
          <leafValues>
            5.2579212188720703e-01 -3.9542493224143982e-01</leafValues></_>
        <_>
          <internalNodes>
            0 -1 1221 2.6276061544194818e-04</internalNodes>
          <leafValues>
            -2.7745842933654785e-01 4.6941322088241577e-01</leafValues></_>
        <_>
          <internalNodes>
            0 -1 1299 2.4501844309270382e-03</internalNodes>
          <leafValues>
            -1.8699546158313751e-01 5.4159915447235107e-01</leafValues></_>
        <_>
          <internalNodes>
            0 -1 1218 3.8978373631834984e-03</internalNodes>
          <leafValues>
            -9.7297295928001404e-02 7.6257026195526123e-01</leafValues></_>
        <_>
          <internalNodes>
            0 -1 140 4.5706238597631454e-03</internalNodes>
          <leafValues>
            -7.9674459993839264e-02 6.6812169551849365e-01</leafValues></_>
        <_>
          <internalNodes>
            0 -1 260 -1.0461078956723213e-02</internalNodes>
          <leafValues>
            -7.4278271198272705e-01 9.6835218369960785e-02</leafValues></_>
        <_>
          <internalNodes>
            0 -1 898 1.2229650747030973e-03</internalNodes>
          <leafValues>
            -1.5463185310363770e-01 4.7227618098258972e-01</leafValues></_>
        <_>
          <internalNodes>
            0 -1 1410 -1.7555369064211845e-02</internalNodes>
          <leafValues>
            -4.6263051033020020e-01 1.5434531867504120e-01</leafValues></_>
        <_>
          <internalNodes>
            0 -1 782 4.4047301344107836e-05</internalNodes>
          <leafValues>
            -2.3365867137908936e-01 2.7913311123847961e-01</leafValues></_>
        <_>
          <internalNodes>
            0 -1 601 9.6215866506099701e-03</internalNodes>
          <leafValues>
            7.7061191201210022e-02 -6.8852972984313965e-01</leafValues></_>
        <_>
          <internalNodes>
            0 -1 910 8.6778737604618073e-03</internalNodes>
          <leafValues>
            -8.5012972354888916e-02 7.8199422359466553e-01</leafValues></_>
        <_>
          <internalNodes>
            0 -1 1411 -6.5792463719844818e-03</internalNodes>
          <leafValues>
            -8.6278843879699707e-01 7.7538825571537018e-02</leafValues></_>
        <_>
          <internalNodes>
            0 -1 557 6.8337786942720413e-03</internalNodes>
          <leafValues>
            -1.0232875496149063e-01 6.2132674455642700e-01</leafValues></_>
        <_>
          <internalNodes>
            0 -1 994 3.3777151256799698e-02</internalNodes>
          <leafValues>
            9.4003170728683472e-02 -6.2947410345077515e-01</leafValues></_>
        <_>
          <internalNodes>
            0 -1 274 -1.1126351309940219e-03</internalNodes>
          <leafValues>
            -4.8055824637413025e-01 9.7808502614498138e-02</leafValues></_>
        <_>
          <internalNodes>
            0 -1 682 -8.0101881176233292e-03</internalNodes>
          <leafValues>
            5.8844804763793945e-01 -9.0809419751167297e-02</leafValues></_>
        <_>
          <internalNodes>
            0 -1 502 2.3216642439365387e-02</internalNodes>
          <leafValues>
            1.2735411524772644e-01 -4.0684759616851807e-01</leafValues></_>
        <_>
          <internalNodes>
            0 -1 1058 -4.5386358397081494e-04</internalNodes>
          <leafValues>
            3.8318666815757751e-01 -1.3352417945861816e-01</leafValues></_>
        <_>
          <internalNodes>
            0 -1 626 9.8262622486799955e-04</internalNodes>
          <leafValues>
            9.8054744303226471e-02 -5.0175482034683228e-01</leafValues></_>
        <_>
          <internalNodes>
            0 -1 1435 -2.6534986682236195e-04</internalNodes>
          <leafValues>
            4.3960589170455933e-01 -1.1440754681825638e-01</leafValues></_>
        <_>
          <internalNodes>
            0 -1 401 -8.2074041711166501e-04</internalNodes>
          <leafValues>
            -2.9979920387268066e-01 1.9070625305175781e-01</leafValues></_>
        <_>
          <internalNodes>
            0 -1 425 -2.8926201630383730e-03</internalNodes>
          <leafValues>
            5.2918225526809692e-01 -1.0476831346750259e-01</leafValues></_>
        <_>
          <internalNodes>
            0 -1 695 -4.6095033176243305e-03</internalNodes>
          <leafValues>
            6.3246798515319824e-01 -6.8057984113693237e-02</leafValues></_>
        <_>
          <internalNodes>
            0 -1 858 3.3868453465402126e-04</internalNodes>
          <leafValues>
            1.3435868918895721e-01 -3.7193784117698669e-01</leafValues></_>
        <_>
          <internalNodes>
            0 -1 905 1.1521829583216459e-04</internalNodes>
          <leafValues>
            -1.2384072691202164e-01 3.9746332168579102e-01</leafValues></_>
        <_>
          <internalNodes>
            0 -1 937 -1.1596794938668609e-03</internalNodes>
          <leafValues>
            -6.9069314002990723e-01 6.5408371388912201e-02</leafValues></_>
        <_>
          <internalNodes>
            0 -1 801 -1.8449693918228149e-02</internalNodes>
          <leafValues>
            5.4382055997848511e-01 -7.8732922673225403e-02</leafValues></_>
        <_>
          <internalNodes>
            0 -1 673 2.9235065449029207e-04</internalNodes>
          <leafValues>
            1.1784634739160538e-01 -3.5787266492843628e-01</leafValues></_>
        <_>
          <internalNodes>
            0 -1 867 -8.6509704589843750e-02</internalNodes>
          <leafValues>
            6.5810084342956543e-01 -6.2887474894523621e-02</leafValues></_>
        <_>
          <internalNodes>
            0 -1 916 6.8854182958602905e-02</internalNodes>
          <leafValues>
            -4.3643772602081299e-02 7.2734642028808594e-01</leafValues></_>
        <_>
          <internalNodes>
            0 -1 1464 -3.8074855692684650e-03</internalNodes>
          <leafValues>
            -5.9474647045135498e-01 7.5586579740047455e-02</leafValues></_>
        <_>
          <internalNodes>
            0 -1 525 -3.7537986645475030e-04</internalNodes>
          <leafValues>
            4.6585825085639954e-01 -7.9908341169357300e-02</leafValues></_>
        <_>
          <internalNodes>
            0 -1 1450 7.2194568929262459e-05</internalNodes>
          <leafValues>
            9.8536327481269836e-02 -4.8417624831199646e-01</leafValues></_>
        <_>
          <internalNodes>
            0 -1 1007 1.6259120777249336e-02</internalNodes>
          <leafValues>
            -6.5660715103149414e-02 5.4777222871780396e-01</leafValues></_>
        <_>
          <internalNodes>
            0 -1 340 -1.2967301881872118e-04</internalNodes>
          <leafValues>
            -4.0200433135032654e-01 9.3360662460327148e-02</leafValues></_>
        <_>
          <internalNodes>
            0 -1 815 9.8784253001213074e-02</internalNodes>
          <leafValues>
            -4.8808403313159943e-02 7.4249297380447388e-01</leafValues></_>
        <_>
          <internalNodes>
            0 -1 1223 3.0953583773225546e-03</internalNodes>
          <leafValues>
            -4.9725104123353958e-02 6.1423039436340332e-01</leafValues></_>
        <_>
          <internalNodes>
            0 -1 377 2.5360863655805588e-02</internalNodes>
          <leafValues>
            4.1918318718671799e-02 -8.6855369806289673e-01</leafValues></_>
        <_>
          <internalNodes>
            0 -1 876 -5.7335898280143738e-02</internalNodes>
          <leafValues>
            6.6021752357482910e-01 -5.2451949566602707e-02</leafValues></_>
        <_>
          <internalNodes>
            0 -1 115 -2.0760308951139450e-02</internalNodes>
          <leafValues>
            -5.5746078491210938e-01 5.7037316262722015e-02</leafValues></_>
        <_>
          <internalNodes>
            0 -1 461 4.5448420569300652e-03</internalNodes>
          <leafValues>
            -4.2486857622861862e-02 6.9306373596191406e-01</leafValues></_>
        <_>
          <internalNodes>
            0 -1 894 3.3462843857705593e-03</internalNodes>
          <leafValues>
            9.0141400694847107e-02 -3.2731643319129944e-01</leafValues></_>
        <_>
          <internalNodes>
            0 -1 1279 -3.9881237898953259e-04</internalNodes>
          <leafValues>
            5.3106278181076050e-01 -6.3368983566761017e-02</leafValues></_>
        <_>
          <internalNodes>
            0 -1 629 -1.0655744373798370e-01</internalNodes>
          <leafValues>
            -8.3903628587722778e-01 3.6160290241241455e-02</leafValues></_>
        <_>
          <internalNodes>
            0 -1 169 3.8904171437025070e-02</internalNodes>
          <leafValues>
            2.5019574910402298e-02 -8.3878076076507568e-01</leafValues></_>
        <_>
          <internalNodes>
            0 -1 915 3.5124467685818672e-03</internalNodes>
          <leafValues>
            -5.3326729685068130e-02 5.2523756027221680e-01</leafValues></_>
        <_>
          <internalNodes>
            0 -1 398 1.6066184267401695e-02</internalNodes>
          <leafValues>
            3.1548410654067993e-02 -9.3124890327453613e-01</leafValues></_>
        <_>
          <internalNodes>
            0 -1 521 -8.8958989363163710e-04</internalNodes>
          <leafValues>
            -5.7522356510162354e-01 3.3013813197612762e-02</leafValues></_>
        <_>
          <internalNodes>
            0 -1 520 -9.7407144494354725e-04</internalNodes>
          <leafValues>
            5.7542383670806885e-01 -5.2482146769762039e-02</leafValues></_>
        <_>
          <internalNodes>
            0 -1 722 -8.0142859369516373e-03</internalNodes>
          <leafValues>
            -9.4175165891647339e-01 2.1282205358147621e-02</leafValues></_>
        <_>
          <internalNodes>
            0 -1 1046 1.7601730301976204e-02</internalNodes>
          <leafValues>
            1.6626430675387383e-02 -9.2376428842544556e-01</leafValues></_>
        <_>
          <internalNodes>
            0 -1 273 2.2745222668163478e-04</internalNodes>
          <leafValues>
            -5.5193565785884857e-02 4.5266166329383850e-01</leafValues></_>
        <_>
          <internalNodes>
            0 -1 395 -6.7929373471997678e-05</internalNodes>
          <leafValues>
            -4.4279733300209045e-01 4.8240646719932556e-02</leafValues></_>
        <_>
          <internalNodes>
            0 -1 501 -9.2079117894172668e-02</internalNodes>
          <leafValues>
            6.4070951938629150e-01 -3.2161023467779160e-02</leafValues></_>
        <_>
          <internalNodes>
            0 -1 878 -1.6747552901506424e-02</internalNodes>
          <leafValues>
            7.9140400886535645e-01 -2.2845087572932243e-02</leafValues></_>
        <_>
          <internalNodes>
            0 -1 1472 1.6436235746368766e-03</internalNodes>
          <leafValues>
            3.3456802368164063e-02 -6.8637090921401978e-01</leafValues></_>
        <_>
          <internalNodes>
            0 -1 1471 -3.1371667981147766e-02</internalNodes>
          <leafValues>
            -7.0684397220611572e-01 2.3127580061554909e-02</leafValues></_>
        <_>
          <internalNodes>
            0 -1 677 -5.8991415426135063e-04</internalNodes>
          <leafValues>
            7.3629921674728394e-01 -2.9739119112491608e-02</leafValues></_>
        <_>
          <internalNodes>
            0 -1 624 4.6364385634660721e-03</internalNodes>
          <leafValues>
            2.3768007755279541e-02 -7.9498100280761719e-01</leafValues></_>
        <_>
          <internalNodes>
            0 -1 1019 -5.3743377327919006e-02</internalNodes>
          <leafValues>
            5.6025111675262451e-01 -3.2669328153133392e-02</leafValues></_>
        <_>
          <internalNodes>
            0 -1 313 -5.2987106144428253e-02</internalNodes>
          <leafValues>
            -4.4846934080123901e-01 3.9509259164333344e-02</leafValues></_>
        <_>
          <internalNodes>
            0 -1 765 -2.2020846605300903e-02</internalNodes>
          <leafValues>
            6.6093105077743530e-01 -2.4578586220741272e-02</leafValues></_>
        <_>
          <internalNodes>
            0 -1 920 -2.8758139815181494e-03</internalNodes>
          <leafValues>
            -7.5221329927444458e-01 1.9064163789153099e-02</leafValues></_>
        <_>
          <internalNodes>
            0 -1 1065 9.0619770344346762e-04</internalNodes>
          <leafValues>
            -2.3117657750844955e-02 7.8933894634246826e-01</leafValues></_>
        <_>
          <internalNodes>
            0 -1 810 -1.3323636725544930e-02</internalNodes>
          <leafValues>
            -6.6619962453842163e-01 2.4081498384475708e-02</leafValues></_>
        <_>
          <internalNodes>
            0 -1 179 -1.4696193858981133e-02</internalNodes>
          <leafValues>
            8.5501021146774292e-01 -1.7729496583342552e-02</leafValues></_>
        <_>
          <internalNodes>
            0 -1 943 4.0854602120816708e-03</internalNodes>
          <leafValues>
            2.0386982709169388e-02 -6.4545100927352905e-01</leafValues></_>
        <_>
          <internalNodes>
            0 -1 531 7.2647910565137863e-04</internalNodes>
          <leafValues>
            -3.1201815232634544e-02 5.1291030645370483e-01</leafValues></_>
        <_>
          <internalNodes>
            0 -1 570 1.2685694673564285e-04</internalNodes>
          <leafValues>
            2.6596065610647202e-02 -5.1072955131530762e-01</leafValues></_>
        <_>
          <internalNodes>
            0 -1 836 -2.6513268239796162e-03</internalNodes>
          <leafValues>
            6.4124286174774170e-01 -1.7699120566248894e-02</leafValues></_>
        <_>
          <internalNodes>
            0 -1 1040 -1.8122093752026558e-04</internalNodes>
          <leafValues>
            -5.3952509164810181e-01 2.2104706615209579e-02</leafValues></_>
        <_>
          <internalNodes>
            0 -1 356 1.0655629448592663e-03</internalNodes>
          <leafValues>
            -2.0229484885931015e-02 6.0248667001724243e-01</leafValues></_>
        <_>
          <internalNodes>
            0 -1 334 1.4510934241116047e-02</internalNodes>
          <leafValues>
            8.6916657164692879e-03 -8.2371836900711060e-01</leafValues></_>
        <_>
          <internalNodes>
            0 -1 1233 1.6589937731623650e-03</internalNodes>
          <leafValues>
            -1.2212177738547325e-02 8.1514549255371094e-01</leafValues></_>
        <_>
          <internalNodes>
            0 -1 1041 -9.0236496180295944e-04</internalNodes>
          <leafValues>
            -4.6027365326881409e-01 2.3037772625684738e-02</leafValues></_>
        <_>
          <internalNodes>
            0 -1 1313 3.4423833130858839e-04</internalNodes>
          <leafValues>
            -1.9611669704318047e-02 5.2648031711578369e-01</leafValues></_>
        <_>
          <internalNodes>
            0 -1 779 1.3178958033677191e-04</internalNodes>
          <leafValues>
            2.0352456718683243e-02 -5.2278584241867065e-01</leafValues></_>
        <_>
          <internalNodes>
            0 -1 1292 2.3698322474956512e-03</internalNodes>
          <leafValues>
            -1.8803892657160759e-02 5.3712254762649536e-01</leafValues></_>
        <_>
          <internalNodes>
            0 -1 422 7.8525811433792114e-02</internalNodes>
          <leafValues>
            8.3547336980700493e-03 -6.6493362188339233e-01</leafValues></_>
        <_>
          <internalNodes>
            0 -1 1453 -7.5354105792939663e-03</internalNodes>
          <leafValues>
            -6.2531208992004395e-01 1.8274191766977310e-02</leafValues></_>
        <_>
          <internalNodes>
            0 -1 577 1.1062165722250938e-03</internalNodes>
          <leafValues>
            -1.5842827036976814e-02 6.9817209243774414e-01</leafValues></_>
        <_>
          <internalNodes>
            0 -1 426 1.3233601748652291e-05</internalNodes>
          <leafValues>
            9.3255462124943733e-03 -4.8069179058074951e-01</leafValues></_>
        <_>
          <internalNodes>
            0 -1 819 -3.6838040687143803e-03</internalNodes>
          <leafValues>
            6.2080079317092896e-01 -1.0826161131262779e-02</leafValues></_>
        <_>
          <internalNodes>
            0 -1 884 -5.4562389850616455e-03</internalNodes>
          <leafValues>
            -9.3246322870254517e-01 3.0015248339623213e-03</leafValues></_>
        <_>
          <internalNodes>
            0 -1 967 -4.6429233625531197e-03</internalNodes>
          <leafValues>
            7.3134827613830566e-01 -1.0748709551990032e-02</leafValues></_>
        <_>
          <internalNodes>
            0 -1 832 -1.3945944374427199e-04</internalNodes>
          <leafValues>
            -6.0751831531524658e-01 1.5540536493062973e-02</leafValues></_>
        <_>
          <internalNodes>
            0 -1 961 -3.1318995170295238e-03</internalNodes>
          <leafValues>
            8.3164131641387939e-01 -4.4185230508446693e-03</leafValues></_>
        <_>
          <internalNodes>
            0 -1 1015 -5.4016546346247196e-04</internalNodes>
          <leafValues>
            -7.2846186161041260e-01 3.4472481347620487e-03</leafValues></_>
        <_>
          <internalNodes>
            0 -1 1423 -8.4980347310192883e-05</internalNodes>
          <leafValues>
            6.6990196704864502e-01 -7.0309885777533054e-03</leafValues></_>
        <_>
          <internalNodes>
            0 -1 1086 1.5391287161037326e-04</internalNodes>
          <leafValues>
            3.2814815640449524e-03 -7.2433012723922729e-01</leafValues></_>
        <_>
          <internalNodes>
            0 -1 1035 1.0857488960027695e-02</internalNodes>
          <leafValues>
            -1.8696573097258806e-03 8.2464611530303955e-01</leafValues></_>
        <_>
          <internalNodes>
            0 -1 984 6.5447139786556363e-04</internalNodes>
          <leafValues>
            7.9886727035045624e-03 -8.4894877672195435e-01</leafValues></_>
        <_>
          <internalNodes>
            0 -1 752 -6.7801736295223236e-03</internalNodes>
          <leafValues>
            8.3746314048767090e-01 -5.0180023536086082e-03</leafValues></_>
        <_>
          <internalNodes>
            0 -1 438 -1.8416736274957657e-02</internalNodes>
          <leafValues>
            -8.2924801111221313e-01 3.6348355934023857e-03</leafValues></_>
        <_>
          <internalNodes>
            0 -1 343 -1.1375512927770615e-01</internalNodes>
          <leafValues>
            9.6568077802658081e-01 -5.8811972849071026e-04</leafValues></_>
        <_>
          <internalNodes>
            0 -1 879 -3.2503984868526459e-02</internalNodes>
          <leafValues>
            -8.3862525224685669e-01 2.9594262596219778e-03</leafValues></_>
        <_>
          <internalNodes>
            0 -1 1083 -2.1825728937983513e-02</internalNodes>
          <leafValues>
            8.7474399805068970e-01 -4.7604604624211788e-03</leafValues></_></weakClassifiers></_>
    <!-- stage 5 -->
    <_>
      <maxWeakCount>100</maxWeakCount>
      <stageThreshold>-3.5434410572052002e+00</stageThreshold>
      <weakClassifiers>
        <_>
          <internalNodes>
            0 -1 1470 -3.4078206226695329e-05</internalNodes>
          <leafValues>
            -1.2500000000000000e-01 -9.7683399915695190e-01</leafValues></_>
        <_>
          <internalNodes>
            0 -1 987 -2.1193605789449066e-05</internalNodes>
          <leafValues>
            4.0197041630744934e-01 -8.9170110225677490e-01</leafValues></_>
        <_>
          <internalNodes>
            0 -1 1439 -5.0322476454311982e-05</internalNodes>
          <leafValues>
            4.7391605377197266e-01 -7.5520265102386475e-01</leafValues></_>
        <_>
          <internalNodes>
            0 -1 1238 2.5175711925840005e-05</internalNodes>
          <leafValues>
            -5.0567048788070679e-01 5.7825386524200439e-01</leafValues></_>
        <_>
          <internalNodes>
            0 -1 203 5.7683388149598613e-05</internalNodes>
          <leafValues>
            -3.2496979832649231e-01 5.5079513788223267e-01</leafValues></_>
        <_>
          <internalNodes>
            0 -1 709 -4.7882739454507828e-02</internalNodes>
          <leafValues>
            7.8078079223632813e-01 -1.1020207405090332e-01</leafValues></_>
        <_>
          <internalNodes>
            0 -1 1426 8.8530353968963027e-04</internalNodes>
          <leafValues>
            1.5834307670593262e-01 -7.4025857448577881e-01</leafValues></_>
        <_>
          <internalNodes>
            0 -1 1294 -2.1582633053185418e-05</internalNodes>
          <leafValues>
            4.9459886550903320e-01 -1.8393629789352417e-01</leafValues></_>
        <_>
          <internalNodes>
            0 -1 1312 2.1004113368690014e-03</internalNodes>
          <leafValues>
            1.3920223712921143e-01 -6.7124879360198975e-01</leafValues></_>
        <_>
          <internalNodes>
            0 -1 1098 -1.5358477830886841e-03</internalNodes>
          <leafValues>
            4.7784495353698730e-01 -1.7738805711269379e-01</leafValues></_>
        <_>
          <internalNodes>
            0 -1 593 8.2597986329346895e-04</internalNodes>
          <leafValues>
            9.9234916269779205e-02 -8.5501873493194580e-01</leafValues></_>
        <_>
          <internalNodes>
            0 -1 1475 -1.3148589059710503e-03</internalNodes>
          <leafValues>
            -7.9221653938293457e-01 6.1805076897144318e-02</leafValues></_>
        <_>
          <internalNodes>
            0 -1 1298 3.3661908673821017e-05</internalNodes>
          <leafValues>
            -1.6208572685718536e-01 4.2898061871528625e-01</leafValues></_>
        <_>
          <internalNodes>
            0 -1 714 7.5376103632152081e-03</internalNodes>
          <leafValues>
            8.0463014543056488e-02 -8.6104649305343628e-01</leafValues></_>
        <_>
          <internalNodes>
            0 -1 258 8.0099627375602722e-03</internalNodes>
          <leafValues>
            3.5534732043743134e-02 -9.6045160293579102e-01</leafValues></_>
        <_>
          <internalNodes>
            0 -1 596 4.0274105966091156e-02</internalNodes>
          <leafValues>
            -7.6477870345115662e-02 9.1184657812118530e-01</leafValues></_>
        <_>
          <internalNodes>
            0 -1 138 3.5985698923468590e-03</internalNodes>
          <leafValues>
            1.0562591999769211e-01 -5.1727735996246338e-01</leafValues></_>
        <_>
          <internalNodes>
            0 -1 688 1.9122738391160965e-02</internalNodes>
          <leafValues>
            -6.9291651248931885e-02 8.5225218534469604e-01</leafValues></_>
        <_>
          <internalNodes>
            0 -1 708 -9.9224895238876343e-03</internalNodes>
          <leafValues>
            8.1581097841262817e-01 -4.6346914023160934e-02</leafValues></_>
        <_>
          <internalNodes>
            0 -1 607 7.4888014933094382e-04</internalNodes>
          <leafValues>
            7.3655880987644196e-02 -8.0804735422134399e-01</leafValues></_>
        <_>
          <internalNodes>
            0 -1 827 -5.5255084589589387e-05</internalNodes>
          <leafValues>
            4.7025427222251892e-01 -1.0289128869771957e-01</leafValues></_>
        <_>
          <internalNodes>
            0 -1 1429 -5.2871357183903456e-04</internalNodes>
          <leafValues>
            -6.2001836299896240e-01 9.3167372047901154e-02</leafValues></_>
        <_>
          <internalNodes>
            0 -1 1193 8.3873663097620010e-03</internalNodes>
          <leafValues>
            4.1305698454380035e-02 -7.5862032175064087e-01</leafValues></_>
        <_>
          <internalNodes>
            0 -1 753 3.0232546851038933e-03</internalNodes>
          <leafValues>
            -8.2145713269710541e-02 5.8116036653518677e-01</leafValues></_>
        <_>
          <internalNodes>
            0 -1 918 6.7439679987728596e-03</internalNodes>
          <leafValues>
            4.0041614323854446e-02 -9.3119055032730103e-01</leafValues></_>
        <_>
          <internalNodes>
            0 -1 1251 -3.4711523912847042e-03</internalNodes>
          <leafValues>
            8.0280262231826782e-01 -4.6619161963462830e-02</leafValues></_>
        <_>
          <internalNodes>
            0 -1 1309 -8.7353342678397894e-04</internalNodes>
          <leafValues>
            -6.1838811635971069e-01 6.7702449858188629e-02</leafValues></_>
        <_>
          <internalNodes>
            0 -1 599 3.0302740633487701e-03</internalNodes>
          <leafValues>
            -7.3975458741188049e-02 5.3864115476608276e-01</leafValues></_>
        <_>
          <internalNodes>
            0 -1 419 2.2037222981452942e-01</internalNodes>
          <leafValues>
            3.3349800854921341e-02 -9.5893144607543945e-01</leafValues></_>
        <_>
          <internalNodes>
            0 -1 109 -2.6784886140376329e-03</internalNodes>
          <leafValues>
            -8.6799210309982300e-01 2.1677983924746513e-02</leafValues></_>
        <_>
          <internalNodes>
            0 -1 436 -5.1999372243881226e-01</internalNodes>
          <leafValues>
            -8.3996355533599854e-01 1.8840903416275978e-02</leafValues></_>
        <_>
          <internalNodes>
            0 -1 1010 -2.0298703020671383e-05</internalNodes>
          <leafValues>
            4.7619161009788513e-01 -5.5244930088520050e-02</leafValues></_>
        <_>
          <internalNodes>
            0 -1 625 1.4299864415079355e-03</internalNodes>
          <leafValues>
            3.2237499952316284e-02 -7.3832643032073975e-01</leafValues></_>
        <_>
          <internalNodes>
            0 -1 329 2.4159315228462219e-01</internalNodes>
          <leafValues>
            -2.3697208613157272e-02 9.0782368183135986e-01</leafValues></_>
        <_>
          <internalNodes>
            0 -1 751 5.4758628830313683e-03</internalNodes>
          <leafValues>
            3.0991539359092712e-02 -7.0266652107238770e-01</leafValues></_>
        <_>
          <internalNodes>
            0 -1 1288 -2.6420908048748970e-02</internalNodes>
          <leafValues>
            5.7462179660797119e-01 -4.0607236325740814e-02</leafValues></_>
        <_>
          <internalNodes>
            0 -1 555 -2.1205231314525008e-04</internalNodes>
          <leafValues>
            -5.1939523220062256e-01 3.8191668689250946e-02</leafValues></_>
        <_>
          <internalNodes>
            0 -1 230 5.5944048799574375e-03</internalNodes>
          <leafValues>
            -3.0708698555827141e-02 5.4429668188095093e-01</leafValues></_>
        <_>
          <internalNodes>
            0 -1 1259 -5.4961687419563532e-04</internalNodes>
          <leafValues>
            -5.1474678516387939e-01 2.7914009988307953e-02</leafValues></_>
        <_>
          <internalNodes>
            0 -1 933 -1.8134847283363342e-02</internalNodes>
          <leafValues>
            1. -1.4382624998688698e-02</leafValues></_>
        <_>
          <internalNodes>
            0 -1 59 -2.1230390295386314e-02</internalNodes>
          <leafValues>
            1. -9.1756945475935936e-03</leafValues></_>
        <_>
          <internalNodes>
            0 -1 1137 -7.9055334208533168e-04</internalNodes>
          <leafValues>
            -5.3480350971221924e-01 2.6470536366105080e-02</leafValues></_>
        <_>
          <internalNodes>
            0 -1 869 -5.3387615480460227e-05</internalNodes>
          <leafValues>
            5.6935548782348633e-01 -2.6110449805855751e-02</leafValues></_>
        <_>
          <internalNodes>
            0 -1 1045 9.0759113663807511e-04</internalNodes>
          <leafValues>
            1.4843393117189407e-02 -7.7448463439941406e-01</leafValues></_>
        <_>
          <internalNodes>
            0 -1 547 -7.4503113864921033e-05</internalNodes>
          <leafValues>
            5.4192256927490234e-01 -1.7267614603042603e-02</leafValues></_>
        <_>
          <internalNodes>
            0 -1 861 -3.2994251698255539e-02</internalNodes>
          <leafValues>
            -5.4948323965072632e-01 2.5081355124711990e-02</leafValues></_>
        <_>
          <internalNodes>
            0 -1 805 4.3530715629458427e-05</internalNodes>
          <leafValues>
            -1.9759092479944229e-02 6.1492180824279785e-01</leafValues></_>
        <_>
          <internalNodes>
            0 -1 1401 -1.4685147907584906e-03</internalNodes>
          <leafValues>
            -7.1511876583099365e-01 1.3588142581284046e-02</leafValues></_>
        <_>
          <internalNodes>
            0 -1 1148 1.4382314402610064e-03</internalNodes>
          <leafValues>
            -1.2567885220050812e-02 6.7087566852569580e-01</leafValues></_>
        <_>
          <internalNodes>
            0 -1 1308 3.5937549546360970e-03</internalNodes>
          <leafValues>
            9.9771050736308098e-03 -8.0394852161407471e-01</leafValues></_>
        <_>
          <internalNodes>
            0 -1 1255 -5.9753712266683578e-03</internalNodes>
          <leafValues>
            7.9893779754638672e-01 -7.5447801500558853e-03</leafValues></_>
        <_>
          <internalNodes>
            0 -1 938 7.2383659426122904e-04</internalNodes>
          <leafValues>
            1.1149125173687935e-02 -7.5764274597167969e-01</leafValues></_>
        <_>
          <internalNodes>
            0 -1 472 -1.7297946033068001e-04</internalNodes>
          <leafValues>
            8.6714094877243042e-01 -7.3951985687017441e-03</leafValues></_>
        <_>
          <internalNodes>
            0 -1 1020 7.8831100836396217e-04</internalNodes>
          <leafValues>
            6.8324580788612366e-03 -7.7517741918563843e-01</leafValues></_>
        <_>
          <internalNodes>
            0 -1 529 6.9534080103039742e-03</internalNodes>
          <leafValues>
            -2.3696774151176214e-03 9.2425060272216797e-01</leafValues></_>
        <_>
          <internalNodes>
            0 -1 863 1.9231832120567560e-03</internalNodes>
          <leafValues>
            5.4703634232282639e-03 -8.1645238399505615e-01</leafValues></_>
        <_>
          <internalNodes>
            0 -1 1219 -2.9614949598908424e-03</internalNodes>
          <leafValues>
            7.6530122756958008e-01 -7.3726931586861610e-03</leafValues></_>
        <_>
          <internalNodes>
            0 -1 471 2.7318287175148726e-03</internalNodes>
          <leafValues>
            4.1683530434966087e-03 -7.6352751255035400e-01</leafValues></_>
        <_>
          <internalNodes>
            0 -1 772 7.1935566666070372e-05</internalNodes>
          <leafValues>
            -3.7864672485738993e-03 8.8157099485397339e-01</leafValues></_>
        <_>
          <internalNodes>
            0 -1 776 9.3172884589876048e-06</internalNodes>
          <leafValues>
            2.2878712043166161e-03 -8.4106242656707764e-01</leafValues></_>
        <_>
          <internalNodes>
            0 -1 806 2.9259546863613650e-05</internalNodes>
          <leafValues>
            -3.0309425201267004e-03 7.9216152429580688e-01</leafValues></_>
        <_>
          <internalNodes>
            0 -1 690 2.4224950175266713e-04</internalNodes>
          <leafValues>
            1.6616245266050100e-03 -8.6555862426757813e-01</leafValues></_>
        <_>
          <internalNodes>
            0 -1 639 1.4101157430559397e-03</internalNodes>
          <leafValues>
            -1.2456806143745780e-03 8.0326926708221436e-01</leafValues></_>
        <_>
          <internalNodes>
            0 -1 1119 -7.0242956280708313e-04</internalNodes>
          <leafValues>
            -8.3829659223556519e-01 2.1533688995987177e-03</leafValues></_>
        <_>
          <internalNodes>
            0 -1 1079 -7.4988405685871840e-04</internalNodes>
          <leafValues>
            9.2382282018661499e-01 -1.9170739687979221e-03</leafValues></_>
        <_>
          <internalNodes>
            0 -1 430 -5.9749651700258255e-03</internalNodes>
          <leafValues>
            -9.0751606225967407e-01 2.0763832144439220e-03</leafValues></_>
        <_>
          <internalNodes>
            0 -1 322 -2.6347185485064983e-03</internalNodes>
          <leafValues>
            8.6242991685867310e-01 -2.1643837681040168e-04</leafValues></_>
        <_>
          <internalNodes>
            0 -1 105 -5.0511211156845093e-03</internalNodes>
          <leafValues>
            -9.0224695205688477e-01 9.2725135618820786e-04</leafValues></_>
        <_>
          <internalNodes>
            0 -1 105 -2.8230717871338129e-03</internalNodes>
          <leafValues>
            9.3186342716217041e-01 -2.2065603116061538e-04</leafValues></_>
        <_>
          <internalNodes>
            0 -1 104 -3.6445085424929857e-04</internalNodes>
          <leafValues>
            -9.1314452886581421e-01 2.9672373784705997e-04</leafValues></_>
        <_>
          <internalNodes>
            0 -1 127 -4.8352312296628952e-03</internalNodes>
          <leafValues>
            9.0165358781814575e-01 -2.3096243967302144e-04</leafValues></_>
        <_>
          <internalNodes>
            0 -1 128 -2.4005262181162834e-02</internalNodes>
          <leafValues>
            -1. 4.8169514047913253e-04</leafValues></_>
        <_>
          <internalNodes>
            0 -1 147 -2.0839739590883255e-04</internalNodes>
          <leafValues>
            9.3072497844696045e-01 -7.3450611671432853e-04</leafValues></_>
        <_>
          <internalNodes>
            0 -1 171 -3.7132946308702230e-03</internalNodes>
          <leafValues>
            -9.5068073272705078e-01 7.6879281550645828e-04</leafValues></_>
        <_>
          <internalNodes>
            0 -1 190 -1.2361643835902214e-02</internalNodes>
          <leafValues>
            1. -3.0619962490163743e-04</leafValues></_>
        <_>
          <internalNodes>
            0 -1 190 -3.2285116612911224e-03</internalNodes>
          <leafValues>
            -1. 7.6963752508163452e-04</leafValues></_>
        <_>
          <internalNodes>
            0 -1 1270 -2.3512764528277330e-05</internalNodes>
          <leafValues>
            1. -8.5168197983875871e-04</leafValues></_>
        <_>
          <internalNodes>
            0 -1 1270 -3.3123075263574719e-04</internalNodes>
          <leafValues>
            -1. -2.0593227123555380e-10</leafValues></_>
        <_>
          <internalNodes>
            0 -1 1214 -1.7683813348412514e-04</internalNodes>
          <leafValues>
            1. -6.9342131610028446e-05</leafValues></_>
        <_>
          <internalNodes>
            0 -1 1213 -4.6538666356354952e-04</internalNodes>
          <leafValues>
            -9.7482120990753174e-01 5.6212290655821562e-04</leafValues></_>
        <_>
          <internalNodes>
            0 -1 1269 -2.7224668883718550e-04</internalNodes>
          <leafValues>
            1. -3.7540771882049739e-04</leafValues></_>
        <_>
          <internalNodes>
            0 -1 1269 -1.3177750224713236e-04</internalNodes>
          <leafValues>
            -9.7664260864257813e-01 2.0894836052320898e-04</leafValues></_>
        <_>
          <internalNodes>
            0 -1 845 -2.8708886820822954e-03</internalNodes>
          <leafValues>
            1. -4.1812050039879978e-04</leafValues></_>
        <_>
          <internalNodes>
            0 -1 659 2.2475137666333467e-04</internalNodes>
          <leafValues>
            1.1753455328289419e-04 -1.</leafValues></_>
        <_>
          <internalNodes>
            0 -1 655 5.2099348977208138e-04</internalNodes>
          <leafValues>
            -4.7921782243065536e-04 1.</leafValues></_>
        <_>
          <internalNodes>
            0 -1 1230 -1.3417426089290529e-04</internalNodes>
          <leafValues>
            -1. 7.5834093149751425e-04</leafValues></_>
        <_>
          <internalNodes>
            0 -1 1256 3.9818841032683849e-03</internalNodes>
          <leafValues>
            -1.0967002890538424e-04 1.</leafValues></_>
        <_>
          <internalNodes>
            0 -1 1252 2.8437566943466663e-03</internalNodes>
          <leafValues>
            9.2400360153988004e-04 -1.</leafValues></_>
        <_>
          <internalNodes>
            0 -1 1155 -4.7957044444046915e-05</internalNodes>
          <leafValues>
            9.3267238140106201e-01 -1.1438827496021986e-03</leafValues></_>
        <_>
          <internalNodes>
            0 -1 1156 -4.8134525422938168e-04</internalNodes>
          <leafValues>
            -9.7299897670745850e-01 5.8839051052927971e-04</leafValues></_>
        <_>
          <internalNodes>
            0 -1 1178 -1.6798921860754490e-03</internalNodes>
          <leafValues>
            1. 2.3490768217016011e-04</leafValues></_>
        <_>
          <internalNodes>
            0 -1 1339 -4.5337210758589208e-04</internalNodes>
          <leafValues>
            -1. 9.2800945276394486e-04</leafValues></_>
        <_>
          <internalNodes>
            0 -1 1341 -2.1249559358693659e-04</internalNodes>
          <leafValues>
            1. -9.7453070338815451e-04</leafValues></_>
        <_>
          <internalNodes>
            0 -1 1341 -4.9276149366050959e-04</internalNodes>
          <leafValues>
            -1. -3.0853264387786794e-10</leafValues></_>
        <_>
          <internalNodes>
            0 -1 1341 -5.7174923131242394e-04</internalNodes>
          <leafValues>
            1. 2.5427730870864439e-14</leafValues></_>
        <_>
          <internalNodes>
            0 -1 1341 -4.9276149366050959e-04</internalNodes>
          <leafValues>
            -1. -2.7209239364649890e-15</leafValues></_>
        <_>
          <internalNodes>
            0 -1 1341 -5.7174923131242394e-04</internalNodes>
          <leafValues>
            1. -2.9020670144330046e-14</leafValues></_>
        <_>
          <internalNodes>
            0 -1 1341 -4.9276149366050959e-04</internalNodes>
          <leafValues>
            -1. 2.7761350686263293e-14</leafValues></_>
        <_>
          <internalNodes>
            0 -1 1341 -5.7174923131242394e-04</internalNodes>
          <leafValues>
            1. -2.4988442643759413e-14</leafValues></_>
        <_>
          <internalNodes>
            0 -1 1341 -4.9276149366050959e-04</internalNodes>
          <leafValues>
            -1. 2.4637616843599733e-14</leafValues></_></weakClassifiers></_>
    <!-- stage 6 -->
    <_>
      <maxWeakCount>100</maxWeakCount>
      <stageThreshold>-3.5631163120269775e+00</stageThreshold>
      <weakClassifiers>
        <_>
          <internalNodes>
            0 -1 297 -1.7754811779013835e-05</internalNodes>
          <leafValues>
            1.9354838877916336e-02 -9.7855228185653687e-01</leafValues></_>
        <_>
          <internalNodes>
            0 -1 1447 -2.5808272766880691e-05</internalNodes>
          <leafValues>
            3.3926811814308167e-01 -9.2706066370010376e-01</leafValues></_>
        <_>
          <internalNodes>
            0 -1 407 -5.0920531066367403e-05</internalNodes>
          <leafValues>
            5.0236403942108154e-01 -7.7201211452484131e-01</leafValues></_>
        <_>
          <internalNodes>
            0 -1 857 3.7674410850740969e-04</internalNodes>
          <leafValues>
            -5.0740110874176025e-01 7.3960906267166138e-01</leafValues></_>
        <_>
          <internalNodes>
            0 -1 1197 -4.7766916395630687e-05</internalNodes>
          <leafValues>
            7.0430183410644531e-01 -2.3776000738143921e-01</leafValues></_>
        <_>
          <internalNodes>
            0 -1 890 7.5091649778187275e-03</internalNodes>
          <leafValues>
            -1.6345348954200745e-01 6.4130294322967529e-01</leafValues></_>
        <_>
          <internalNodes>
            0 -1 1460 -1.3087745755910873e-03</internalNodes>
          <leafValues>
            -8.9759266376495361e-01 1.2982079386711121e-01</leafValues></_>
        <_>
          <internalNodes>
            0 -1 1407 -1.9516557586030103e-05</internalNodes>
          <leafValues>
            5.4217815399169922e-01 -1.8442383408546448e-01</leafValues></_>
        <_>
          <internalNodes>
            0 -1 1263 2.8778258711099625e-03</internalNodes>
          <leafValues>
            1.2279242277145386e-01 -8.1346744298934937e-01</leafValues></_>
        <_>
          <internalNodes>
            0 -1 1243 7.3827913729473948e-04</internalNodes>
          <leafValues>
            7.8496053814888000e-02 -7.5339150428771973e-01</leafValues></_>
        <_>
          <internalNodes>
            0 -1 720 5.0998859107494354e-02</internalNodes>
          <leafValues>
            -1.0384070873260498e-01 9.4353294372558594e-01</leafValues></_>
        <_>
          <internalNodes>
            0 -1 192 9.4358727335929871e-02</internalNodes>
          <leafValues>
            -5.1662966609001160e-02 8.0504101514816284e-01</leafValues></_>
        <_>
          <internalNodes>
            0 -1 509 1.0075744939967990e-03</internalNodes>
          <leafValues>
            1.0761506110429764e-01 -6.5139585733413696e-01</leafValues></_>
        <_>
          <internalNodes>
            0 -1 905 7.7575168688781559e-05</internalNodes>
          <leafValues>
            -1.3501857221126556e-01 5.1649039983749390e-01</leafValues></_>
        <_>
          <internalNodes>
            0 -1 623 8.2988193025812507e-04</internalNodes>
          <leafValues>
            9.3118526041507721e-02 -6.6429483890533447e-01</leafValues></_>
        <_>
          <internalNodes>
            0 -1 849 -1.0284697636961937e-03</internalNodes>
          <leafValues>
            -7.9180938005447388e-01 4.5453179627656937e-02</leafValues></_>
        <_>
          <internalNodes>
            0 -1 896 1.1189752258360386e-03</internalNodes>
          <leafValues>
            -8.5545480251312256e-02 6.6819983720779419e-01</leafValues></_>
        <_>
          <internalNodes>
            0 -1 594 -2.0325242076069117e-03</internalNodes>
          <leafValues>
            -9.0068864822387695e-01 5.2815169095993042e-02</leafValues></_>
        <_>
          <internalNodes>
            0 -1 744 2.5913804769515991e-02</internalNodes>
          <leafValues>
            -6.8216696381568909e-02 8.0860656499862671e-01</leafValues></_>
        <_>
          <internalNodes>
            0 -1 358 6.7964690970256925e-04</internalNodes>
          <leafValues>
            6.0579318553209305e-02 -7.3135089874267578e-01</leafValues></_>
        <_>
          <internalNodes>
            0 -1 1133 3.2284215558320284e-04</internalNodes>
          <leafValues>
            -7.1845307946205139e-02 6.2388283014297485e-01</leafValues></_>
        <_>
          <internalNodes>
            0 -1 687 4.0666926652193069e-03</internalNodes>
          <leafValues>
            5.1107425242662430e-02 -6.8740218877792358e-01</leafValues></_>
        <_>
          <internalNodes>
            0 -1 818 5.4278988391160965e-02</internalNodes>
          <leafValues>
            -4.9267165362834930e-02 7.3779869079589844e-01</leafValues></_>
        <_>
          <internalNodes>
            0 -1 503 -1.0198887903243303e-03</internalNodes>
          <leafValues>
            -8.4898257255554199e-01 4.0406055748462677e-02</leafValues></_>
        <_>
          <internalNodes>
            0 -1 791 -5.2711935713887215e-03</internalNodes>
          <leafValues>
            6.6703009605407715e-01 -4.3324258178472519e-02</leafValues></_>
        <_>
          <internalNodes>
            0 -1 1240 -3.3448771573603153e-03</internalNodes>
          <leafValues>
            -6.6280180215835571e-01 4.7247972339391708e-02</leafValues></_>
        <_>
          <internalNodes>
            0 -1 948 -3.8682434707880020e-02</internalNodes>
          <leafValues>
            8.3036410808563232e-01 -3.2752983272075653e-02</leafValues></_>
        <_>
          <internalNodes>
            0 -1 444 -5.1791639998555183e-03</internalNodes>
          <leafValues>
            -8.9452880620956421e-01 2.9301442205905914e-02</leafValues></_>
        <_>
          <internalNodes>
            0 -1 1088 1.6139216721057892e-02</internalNodes>
          <leafValues>
            -2.6972150430083275e-02 8.4618026018142700e-01</leafValues></_>
        <_>
          <internalNodes>
            0 -1 1463 3.2155348453670740e-03</internalNodes>
          <leafValues>
            2.1674808114767075e-02 -8.9008331298828125e-01</leafValues></_>
        <_>
          <internalNodes>
            0 -1 1465 1.8338994414079934e-04</internalNodes>
          <leafValues>
            -2.6578860357403755e-02 6.3419455289840698e-01</leafValues></_>
        <_>
          <internalNodes>
            0 -1 1440 -8.5387367289513350e-04</internalNodes>
          <leafValues>
            -7.9709219932556152e-01 2.0548790693283081e-02</leafValues></_>
        <_>
          <internalNodes>
            0 -1 719 4.9206644296646118e-02</internalNodes>
          <leafValues>
            -1.7241384834051132e-02 8.3400839567184448e-01</leafValues></_>
        <_>
          <internalNodes>
            0 -1 665 9.8386295139789581e-03</internalNodes>
          <leafValues>
            2.2928640246391296e-02 -7.2110635042190552e-01</leafValues></_>
        <_>
          <internalNodes>
            0 -1 1177 1.5305834822356701e-03</internalNodes>
          <leafValues>
            -1.7218502238392830e-02 8.3237087726593018e-01</leafValues></_>
        <_>
          <internalNodes>
            0 -1 1145 1.3131863670423627e-04</internalNodes>
          <leafValues>
            2.2103717550635338e-02 -6.1720681190490723e-01</leafValues></_>
        <_>
          <internalNodes>
            0 -1 473 -1.9485957454890013e-03</internalNodes>
          <leafValues>
            8.1456243991851807e-01 -1.5316251665353775e-02</leafValues></_>
        <_>
          <internalNodes>
            0 -1 279 -2.7799297822639346e-04</internalNodes>
          <leafValues>
            -7.0883029699325562e-01 1.3721908442676067e-02</leafValues></_>
        <_>
          <internalNodes>
            0 -1 1011 -2.6049674488604069e-05</internalNodes>
          <leafValues>
            7.2421205043792725e-01 -1.8274534493684769e-02</leafValues></_>
        <_>
          <internalNodes>
            0 -1 364 -1.8139063613489270e-03</internalNodes>
          <leafValues>
            -7.1994400024414063e-01 1.3595927506685257e-02</leafValues></_>
        <_>
          <internalNodes>
            0 -1 1053 2.2561558580491692e-04</internalNodes>
          <leafValues>
            -1.2475414201617241e-02 7.1642071008682251e-01</leafValues></_>
        <_>
          <internalNodes>
            0 -1 637 6.4137333538383245e-04</internalNodes>
          <leafValues>
            9.3574598431587219e-03 -7.9895234107971191e-01</leafValues></_>
        <_>
          <internalNodes>
            0 -1 699 2.7432420756667852e-04</internalNodes>
          <leafValues>
            -8.1039387732744217e-03 7.6497632265090942e-01</leafValues></_>
        <_>
          <internalNodes>
            0 -1 1359 -3.5694724647328258e-04</internalNodes>
          <leafValues>
            -8.1100994348526001e-01 8.7494924664497375e-03</leafValues></_>
        <_>
          <internalNodes>
            0 -1 1257 -3.4041586332023144e-03</internalNodes>
          <leafValues>
            8.2637542486190796e-01 -4.8723067156970501e-03</leafValues></_>
        <_>
          <internalNodes>
            0 -1 488 1.3695980887860060e-03</internalNodes>
          <leafValues>
            4.1433144360780716e-03 -8.7007826566696167e-01</leafValues></_>
        <_>
          <internalNodes>
            0 -1 580 -1.1067648883908987e-03</internalNodes>
          <leafValues>
            7.8676086664199829e-01 -4.6512307599186897e-03</leafValues></_>
        <_>
          <internalNodes>
            0 -1 447 4.5787999988533556e-04</internalNodes>
          <leafValues>
            5.1091043278574944e-03 -7.9628658294677734e-01</leafValues></_>
        <_>
          <internalNodes>
            0 -1 402 2.2120046196505427e-04</internalNodes>
          <leafValues>
            -3.4900468308478594e-03 8.8457554578781128e-01</leafValues></_>
        <_>
          <internalNodes>
            0 -1 479 3.2870670111151412e-05</internalNodes>
          <leafValues>
            2.4883059086278081e-04 -9.1292661428451538e-01</leafValues></_>
        <_>
          <internalNodes>
            0 -1 1010 -2.0298703020671383e-05</internalNodes>
          <leafValues>
            9.1945677995681763e-01 -1.2982604675926268e-04</leafValues></_>
        <_>
          <internalNodes>
            0 -1 1458 -6.2617752701044083e-04</internalNodes>
          <leafValues>
            -8.7710732221603394e-01 2.0430623553693295e-03</leafValues></_>
        <_>
          <internalNodes>
            0 -1 359 4.2387211578898132e-05</internalNodes>
          <leafValues>
            -3.8429310079663992e-03 9.2541164159774780e-01</leafValues></_>
        <_>
          <internalNodes>
            0 -1 1403 1.1925895232707262e-03</internalNodes>
          <leafValues>
            1.1286156950518489e-03 -1.</leafValues></_>
        <_>
          <internalNodes>
            0 -1 1402 1.2302268296480179e-03</internalNodes>
          <leafValues>
            -1.3717322144657373e-04 1.</leafValues></_>
        <_>
          <internalNodes>
            0 -1 1408 2.0958593813702464e-04</internalNodes>
          <leafValues>
            2.0276810973882675e-03 -1.</leafValues></_>
        <_>
          <internalNodes>
            0 -1 962 -1.2587513774633408e-03</internalNodes>
          <leafValues>
            9.0314054489135742e-01 -1.4430431183427572e-03</leafValues></_>
        <_>
          <internalNodes>
            0 -1 366 3.2970388419926167e-03</internalNodes>
          <leafValues>
            2.2014749702066183e-03 -9.7259074449539185e-01</leafValues></_>
        <_>
          <internalNodes>
            0 -1 465 4.3304129503667355e-03</internalNodes>
          <leafValues>
            -1.6743992455303669e-03 9.4219923019409180e-01</leafValues></_>
        <_>
          <internalNodes>
            0 -1 631 -3.2043521059677005e-04</internalNodes>
          <leafValues>
            -1. 1.8899299902841449e-03</leafValues></_>
        <_>
          <internalNodes>
            0 -1 631 -2.7601685724221170e-04</internalNodes>
          <leafValues>
            9.2465919256210327e-01 2.2501951413289589e-09</leafValues></_>
        <_>
          <internalNodes>
            0 -1 246 5.4347730474546552e-04</internalNodes>
          <leafValues>
            3.2302175532095134e-04 -9.6778601408004761e-01</leafValues></_>
        <_>
          <internalNodes>
            0 -1 251 1.7192078521475196e-03</internalNodes>
          <leafValues>
            -3.7375590181909502e-04 9.5334833860397339e-01</leafValues></_>
        <_>
          <internalNodes>
            0 -1 251 1.3159957015886903e-03</internalNodes>
          <leafValues>
            -1.7410899111336420e-11 -9.6766114234924316e-01</leafValues></_>
        <_>
          <internalNodes>
            0 -1 251 1.7192078521475196e-03</internalNodes>
          <leafValues>
            -4.3482819206191667e-14 9.5463496446609497e-01</leafValues></_>
        <_>
          <internalNodes>
            0 -1 85 3.3249198459088802e-03</internalNodes>
          <leafValues>
            1.1066812294302508e-04 -9.6660107374191284e-01</leafValues></_>
        <_>
          <internalNodes>
            0 -1 233 6.5264830482192338e-05</internalNodes>
          <leafValues>
            -4.3223117245361209e-04 9.6709251403808594e-01</leafValues></_>
        <_>
          <internalNodes>
            0 -1 929 2.6901223463937640e-04</internalNodes>
          <leafValues>
            7.5459516665432602e-05 -1.</leafValues></_>
        <_>
          <internalNodes>
            0 -1 929 1.3313854287844151e-04</internalNodes>
          <leafValues>
            -2.4607285740785301e-04 9.6108889579772949e-01</leafValues></_>
        <_>
          <internalNodes>
            0 -1 386 -7.0505135226994753e-05</internalNodes>
          <leafValues>
            -9.5621693134307861e-01 1.1971369385719299e-03</leafValues></_>
        <_>
          <internalNodes>
            0 -1 618 -5.8707515563583001e-05</internalNodes>
          <leafValues>
            9.5848613977432251e-01 -2.0578742260113358e-04</leafValues></_>
        <_>
          <internalNodes>
            0 -1 1109 -8.3219807129353285e-04</internalNodes>
          <leafValues>
            -1. -2.0597870752681047e-04</leafValues></_>
        <_>
          <internalNodes>
            0 -1 1062 -7.6791760511696339e-04</internalNodes>
          <leafValues>
            9.7084814310073853e-01 -2.0056076755281538e-04</leafValues></_>
        <_>
          <internalNodes>
            0 -1 856 -2.2779576829634607e-04</internalNodes>
          <leafValues>
            -1. 8.4041868103668094e-04</leafValues></_>
        <_>
          <internalNodes>
            0 -1 856 -1.1321010970277712e-04</internalNodes>
          <leafValues>
            1. -2.0424478861968964e-04</leafValues></_>
        <_>
          <internalNodes>
            0 -1 620 -6.7502883030101657e-04</internalNodes>
          <leafValues>
            -1. 1.1087979510193691e-04</leafValues></_>
        <_>
          <internalNodes>
            0 -1 278 1.9245718140155077e-03</internalNodes>
          <leafValues>
            -4.8090389464050531e-04 1.</leafValues></_>
        <_>
          <internalNodes>
            0 -1 1397 -8.4129319293424487e-04</internalNodes>
          <leafValues>
            -1. 9.0896058827638626e-04</leafValues></_>
        <_>
          <internalNodes>
            0 -1 1397 -9.8074448760598898e-04</internalNodes>
          <leafValues>
            1. 2.5030783001867007e-10</leafValues></_>
        <_>
          <internalNodes>
            0 -1 1397 -8.4129319293424487e-04</internalNodes>
          <leafValues>
            -1. 7.2442382699640893e-15</leafValues></_>
        <_>
          <internalNodes>
            0 -1 1397 -4.3262541294097900e-04</internalNodes>
          <leafValues>
            1. -2.0483179429399249e-14</leafValues></_>
        <_>
          <internalNodes>
            0 -1 1397 -3.2262995955534279e-04</internalNodes>
          <leafValues>
            -1. 2.6827735725206553e-14</leafValues></_>
        <_>
          <internalNodes>
            0 -1 1397 -1.6401594621129334e-04</internalNodes>
          <leafValues>
            1. 8.8305958784163068e-16</leafValues></_>
        <_>
          <internalNodes>
            0 -1 1397 -3.2262995955534279e-04</internalNodes>
          <leafValues>
            -1. -1.9921564398117653e-14</leafValues></_>
        <_>
          <internalNodes>
            0 -1 1397 -1.6401594621129334e-04</internalNodes>
          <leafValues>
            1. 1.1788178702761779e-14</leafValues></_>
        <_>
          <internalNodes>
            0 -1 1397 -3.2262995955534279e-04</internalNodes>
          <leafValues>
            -1. 9.7936507401042913e-15</leafValues></_>
        <_>
          <internalNodes>
            0 -1 1397 -1.6401594621129334e-04</internalNodes>
          <leafValues>
            1. 7.5946913756269781e-15</leafValues></_>
        <_>
          <internalNodes>
            0 -1 1397 -3.2262995955534279e-04</internalNodes>
          <leafValues>
            -1. -1.8138902245458041e-14</leafValues></_>
        <_>
          <internalNodes>
            0 -1 1397 -1.6401594621129334e-04</internalNodes>
          <leafValues>
            1. 1.0585396152825409e-14</leafValues></_>
        <_>
          <internalNodes>
            0 -1 1397 -3.2262995955534279e-04</internalNodes>
          <leafValues>
            -1. 8.4221053457569743e-15</leafValues></_>
        <_>
          <internalNodes>
            0 -1 1397 -1.6401594621129334e-04</internalNodes>
          <leafValues>
            1. 3.0086030068903879e-15</leafValues></_>
        <_>
          <internalNodes>
            0 -1 1397 -3.2262995955534279e-04</internalNodes>
          <leafValues>
            -1. -1.8292386309566415e-14</leafValues></_>
        <_>
          <internalNodes>
            0 -1 1397 -1.6401594621129334e-04</internalNodes>
          <leafValues>
            1. 6.4297686573340333e-15</leafValues></_>
        <_>
          <internalNodes>
            0 -1 1397 -3.2262995955534279e-04</internalNodes>
          <leafValues>
            -1. 9.7106008536919017e-15</leafValues></_>
        <_>
          <internalNodes>
            0 -1 1397 -1.6401594621129334e-04</internalNodes>
          <leafValues>
            1. 3.3239216094176419e-15</leafValues></_>
        <_>
          <internalNodes>
            0 -1 1397 -3.2262995955534279e-04</internalNodes>
          <leafValues>
            -1. -1.8262582608284325e-14</leafValues></_>
        <_>
          <internalNodes>
            0 -1 1397 -1.6401594621129334e-04</internalNodes>
          <leafValues>
            1. 1.0116906464863792e-14</leafValues></_>
        <_>
          <internalNodes>
            0 -1 1397 -3.2262995955534279e-04</internalNodes>
          <leafValues>
            -1. -2.6198334341222089e-14</leafValues></_>
        <_>
          <internalNodes>
            0 -1 1397 -1.6401594621129334e-04</internalNodes>
          <leafValues>
            1. 9.9410412491901176e-15</leafValues></_>
        <_>
          <internalNodes>
            0 -1 1397 -3.2262995955534279e-04</internalNodes>
          <leafValues>
            -1. 9.5501948363385658e-15</leafValues></_></weakClassifiers></_>
    <!-- stage 7 -->
    <_>
      <maxWeakCount>100</maxWeakCount>
      <stageThreshold>-3.5682415962219238e+00</stageThreshold>
      <weakClassifiers>
        <_>
          <internalNodes>
            0 -1 308 -2.8113883672631346e-05</internalNodes>
          <leafValues>
            2.4193547666072845e-01 -9.7728991508483887e-01</leafValues></_>
        <_>
          <internalNodes>
            0 -1 1023 -3.7951467675156891e-04</internalNodes>
          <leafValues>
            4.9062839150428772e-01 -9.2210745811462402e-01</leafValues></_>
        <_>
          <internalNodes>
            0 -1 1183 5.5210560094565153e-04</internalNodes>
          <leafValues>
            -7.8039199113845825e-01 7.2439211606979370e-01</leafValues></_>
        <_>
          <internalNodes>
            0 -1 50 -2.0546736777760088e-04</internalNodes>
          <leafValues>
            6.1910867691040039e-01 -5.4563921689987183e-01</leafValues></_>
        <_>
          <internalNodes>
            0 -1 462 1.7480227397754788e-03</internalNodes>
          <leafValues>
            -2.3328840732574463e-01 8.6153131723403931e-01</leafValues></_>
        <_>
          <internalNodes>
            0 -1 1340 4.3870790977962315e-04</internalNodes>
          <leafValues>
            -1.1540356278419495e-01 8.4448468685150146e-01</leafValues></_>
        <_>
          <internalNodes>
            0 -1 732 -3.0671386048197746e-03</internalNodes>
          <leafValues>
            8.9703667163848877e-01 -8.0616578459739685e-02</leafValues></_>
        <_>
          <internalNodes>
            0 -1 1344 4.1624847799539566e-03</internalNodes>
          <leafValues>
            1.2343900650739670e-01 -8.3836776018142700e-01</leafValues></_>
        <_>
          <internalNodes>
            0 -1 837 4.7293617390096188e-03</internalNodes>
          <leafValues>
            -1.0699713975191116e-01 9.3502849340438843e-01</leafValues></_>
        <_>
          <internalNodes>
            0 -1 646 -5.7590529322624207e-02</internalNodes>
          <leafValues>
            -9.3174791336059570e-01 9.1659262776374817e-02</leafValues></_>
        <_>
          <internalNodes>
            0 -1 972 -1.3583285734057426e-02</internalNodes>
          <leafValues>
            7.6154798269271851e-01 -9.5566116273403168e-02</leafValues></_>
        <_>
          <internalNodes>
            0 -1 1476 -6.0309236869215965e-03</internalNodes>
          <leafValues>
            -8.6349511146545410e-01 8.0399014055728912e-02</leafValues></_>
        <_>
          <internalNodes>
            0 -1 532 3.7849303334951401e-03</internalNodes>
          <leafValues>
            -7.9017721116542816e-02 7.6432937383651733e-01</leafValues></_>
        <_>
          <internalNodes>
            0 -1 405 9.3774264678359032e-04</internalNodes>
          <leafValues>
            1.1751648038625717e-01 -5.1652532815933228e-01</leafValues></_>
        <_>
          <internalNodes>
            0 -1 571 7.4778245761990547e-03</internalNodes>
          <leafValues>
            -7.0615552365779877e-02 8.8056659698486328e-01</leafValues></_>
        <_>
          <internalNodes>
            0 -1 860 2.0720731467008591e-02</internalNodes>
          <leafValues>
            -2.2373087704181671e-02 9.7654044628143311e-01</leafValues></_>
        <_>
          <internalNodes>
            0 -1 595 -5.5177649483084679e-03</internalNodes>
          <leafValues>
            -7.3630112409591675e-01 7.3897480964660645e-02</leafValues></_>
        <_>
          <internalNodes>
            0 -1 902 9.2466664500534534e-04</internalNodes>
          <leafValues>
            -5.9461642056703568e-02 8.3873420953750610e-01</leafValues></_>
        <_>
          <internalNodes>
            0 -1 574 1.0652876459062099e-02</internalNodes>
          <leafValues>
            5.4130304604768753e-02 -6.9135159254074097e-01</leafValues></_>
        <_>
          <internalNodes>
            0 -1 913 -3.6660893820226192e-03</internalNodes>
          <leafValues>
            7.7030783891677856e-01 -5.0159744918346405e-02</leafValues></_>
        <_>
          <internalNodes>
            0 -1 124 8.1908702850341797e-03</internalNodes>
          <leafValues>
            -1.6649359837174416e-02 9.7698330879211426e-01</leafValues></_>
        <_>
          <internalNodes>
            0 -1 336 1.1862535029649734e-03</internalNodes>
          <leafValues>
            5.3059495985507965e-02 -5.7425493001937866e-01</leafValues></_>
        <_>
          <internalNodes>
            0 -1 654 2.0019272342324257e-03</internalNodes>
          <leafValues>
            -4.0495119988918304e-02 6.1814361810684204e-01</leafValues></_>
        <_>
          <internalNodes>
            0 -1 442 -7.6821900904178619e-02</internalNodes>
          <leafValues>
            -9.2934900522232056e-01 2.5651386007666588e-02</leafValues></_>
        <_>
          <internalNodes>
            0 -1 361 -4.6405158936977386e-02</internalNodes>
          <leafValues>
            -9.1919028759002686e-01 1.5797676518559456e-02</leafValues></_>
        <_>
          <internalNodes>
            0 -1 973 -2.9952690965728834e-05</internalNodes>
          <leafValues>
            6.4612990617752075e-01 -3.0203131958842278e-02</leafValues></_>
        <_>
          <internalNodes>
            0 -1 931 2.2260356694459915e-02</internalNodes>
          <leafValues>
            2.4322070181369781e-02 -6.8284881114959717e-01</leafValues></_>
        <_>
          <internalNodes>
            0 -1 1331 3.1872834078967571e-03</internalNodes>
          <leafValues>
            -1.8112767487764359e-02 8.0152541399002075e-01</leafValues></_>
        <_>
          <internalNodes>
            0 -1 337 -4.0897079743444920e-03</internalNodes>
          <leafValues>
            -9.4948381185531616e-01 1.4089125208556652e-02</leafValues></_>
        <_>
          <internalNodes>
            0 -1 892 -2.6736366562545300e-03</internalNodes>
          <leafValues>
            8.0428779125213623e-01 -1.4914602972567081e-02</leafValues></_>
        <_>
          <internalNodes>
            0 -1 1151 -3.4260138636454940e-04</internalNodes>
          <leafValues>
            -5.9159386157989502e-01 2.1826948970556259e-02</leafValues></_>
        <_>
          <internalNodes>
            0 -1 853 -6.4778735395520926e-04</internalNodes>
          <leafValues>
            8.7485527992248535e-01 -1.2695940211415291e-02</leafValues></_>
        <_>
          <internalNodes>
            0 -1 539 2.1594256162643433e-02</internalNodes>
          <leafValues>
            1.1949522420763969e-02 -8.1854212284088135e-01</leafValues></_>
        <_>
          <internalNodes>
            0 -1 824 4.9388454499421641e-05</internalNodes>
          <leafValues>
            -1.7576817423105240e-02 6.5432274341583252e-01</leafValues></_>
        <_>
          <internalNodes>
            0 -1 561 4.0551513666287065e-04</internalNodes>
          <leafValues>
            1.0464474558830261e-02 -6.7790108919143677e-01</leafValues></_>
        <_>
          <internalNodes>
            0 -1 951 1.9928373396396637e-02</internalNodes>
          <leafValues>
            -7.8745065256953239e-03 7.8217613697052002e-01</leafValues></_>
        <_>
          <internalNodes>
            0 -1 1287 1.1323365615680814e-03</internalNodes>
          <leafValues>
            1.0003256611526012e-02 -6.6634702682495117e-01</leafValues></_>
        <_>
          <internalNodes>
            0 -1 498 1.0971458628773689e-02</internalNodes>
          <leafValues>
            -2.9262574389576912e-03 1.</leafValues></_>
        <_>
          <internalNodes>
            0 -1 1060 7.2515122592449188e-03</internalNodes>
          <leafValues>
            6.6865715198218822e-03 -1.</leafValues></_>
        <_>
          <internalNodes>
            0 -1 1319 6.6989770857617259e-04</internalNodes>
          <leafValues>
            -9.0787522494792938e-03 7.8657501935958862e-01</leafValues></_>
        <_>
          <internalNodes>
            0 -1 519 1.8398202955722809e-02</internalNodes>
          <leafValues>
            6.0729486867785454e-03 -8.9222323894500732e-01</leafValues></_>
        <_>
          <internalNodes>
            0 -1 966 2.7380301617085934e-04</internalNodes>
          <leafValues>
            -3.7513845600187778e-03 8.5844647884368896e-01</leafValues></_>
        <_>
          <internalNodes>
            0 -1 431 -1.8068671226501465e-02</internalNodes>
          <leafValues>
            -7.0631003379821777e-01 4.9321143887937069e-03</leafValues></_>
        <_>
          <internalNodes>
            0 -1 1172 -8.1131336628459394e-05</internalNodes>
          <leafValues>
            9.0657967329025269e-01 -3.2727180514484644e-03</leafValues></_>
        <_>
          <internalNodes>
            0 -1 964 1.6921742353588343e-03</internalNodes>
          <leafValues>
            2.0664040930569172e-03 -8.9646756649017334e-01</leafValues></_>
        <_>
          <internalNodes>
            0 -1 965 2.1703542734030634e-04</internalNodes>
          <leafValues>
            -1.6651760088279843e-03 9.5443248748779297e-01</leafValues></_>
        <_>
          <internalNodes>
            0 -1 1430 -1.1063567362725735e-03</internalNodes>
          <leafValues>
            -9.3410855531692505e-01 4.6182514051906765e-04</leafValues></_>
        <_>
          <internalNodes>
            0 -1 1393 -8.0624449765309691e-05</internalNodes>
          <leafValues>
            9.5668822526931763e-01 -8.7041972437873483e-04</leafValues></_>
        <_>
          <internalNodes>
            0 -1 1272 -1.2640000786632299e-03</internalNodes>
          <leafValues>
            -1. 5.1708944374695420e-04</leafValues></_>
        <_>
          <internalNodes>
            0 -1 1349 -6.2771039665676653e-05</internalNodes>
          <leafValues>
            1. -7.4783671880140901e-04</leafValues></_>
        <_>
          <internalNodes>
            0 -1 587 -8.5732189472764730e-04</internalNodes>
          <leafValues>
            -1. 1.3284309534355998e-04</leafValues></_>
        <_>
          <internalNodes>
            0 -1 1030 -1.3562467938754708e-04</internalNodes>
          <leafValues>
            1. -7.6686433749273419e-04</leafValues></_>
        <_>
          <internalNodes>
            0 -1 288 1.7447184291086160e-05</internalNodes>
          <leafValues>
            1.3018661411479115e-03 -9.6526569128036499e-01</leafValues></_>
        <_>
          <internalNodes>
            0 -1 287 4.5345627586357296e-04</internalNodes>
          <leafValues>
            7.3549161205832547e-10 1.</leafValues></_>
        <_>
          <internalNodes>
            0 -1 287 2.5968402042053640e-04</internalNodes>
          <leafValues>
            -6.2545027174705416e-15 -9.6798366308212280e-01</leafValues></_>
        <_>
          <internalNodes>
            0 -1 287 4.5345627586357296e-04</internalNodes>
          <leafValues>
            -3.2789732978518241e-14 1.</leafValues></_>
        <_>
          <internalNodes>
            0 -1 287 2.5968402042053640e-04</internalNodes>
          <leafValues>
            2.7802704528814143e-14 -9.6993964910507202e-01</leafValues></_>
        <_>
          <internalNodes>
            0 -1 287 4.5345627586357296e-04</internalNodes>
          <leafValues>
            -3.3968098109684111e-14 1.</leafValues></_>
        <_>
          <internalNodes>
            0 -1 287 2.5968402042053640e-04</internalNodes>
          <leafValues>
            -1.0881620515139183e-15 -9.7166877985000610e-01</leafValues></_>
        <_>
          <internalNodes>
            0 -1 399 2.2469013929367065e-03</internalNodes>
          <leafValues>
            -6.1576446341859992e-07 1.</leafValues></_>
        <_>
          <internalNodes>
            0 -1 282 2.7226506063016132e-05</internalNodes>
          <leafValues>
            2.0246214990038425e-04 -1.</leafValues></_>
        <_>
          <internalNodes>
            0 -1 289 2.1131112589500844e-04</internalNodes>
          <leafValues>
            -2.0184638560749590e-04 1.</leafValues></_>
        <_>
          <internalNodes>
            0 -1 1320 -1.5060222358442843e-04</internalNodes>
          <leafValues>
            -1. 8.3771033678203821e-04</leafValues></_>
        <_>
          <internalNodes>
            0 -1 1317 -2.7397256344556808e-03</internalNodes>
          <leafValues>
            1. 1.9599816214466159e-10</leafValues></_>
        <_>
          <internalNodes>
            0 -1 1273 -2.0681372916442342e-05</internalNodes>
          <leafValues>
            -1. 2.0288373343646526e-04</leafValues></_>
        <_>
          <internalNodes>
            0 -1 1271 -9.3838066095486283e-04</internalNodes>
          <leafValues>
            1. 2.8142592423119339e-12</leafValues></_>
        <_>
          <internalNodes>
            0 -1 323 -4.1940741357393563e-04</internalNodes>
          <leafValues>
            -1. 2.5848221412161365e-05</leafValues></_>
        <_>
          <internalNodes>
            0 -1 129 -1.5214401064440608e-03</internalNodes>
          <leafValues>
            1. -3.7617309169967611e-14</leafValues></_>
        <_>
          <internalNodes>
            0 -1 67 -1.0049062548205256e-03</internalNodes>
          <leafValues>
            -1. 3.4066382795572281e-04</leafValues></_>
        <_>
          <internalNodes>
            0 -1 56 -2.7859224937856197e-03</internalNodes>
          <leafValues>
            1. 1.3197738908676815e-11</leafValues></_>
        <_>
          <internalNodes>
            0 -1 664 -3.2602977007627487e-03</internalNodes>
          <leafValues>
            -1. 5.0392030971124768e-04</leafValues></_>
        <_>
          <internalNodes>
            0 -1 207 -3.4349141642451286e-03</internalNodes>
          <leafValues>
            1. 4.2681042727865659e-11</leafValues></_>
        <_>
          <internalNodes>
            0 -1 187 -9.7158149583265185e-04</internalNodes>
          <leafValues>
            -1. 2.9176598745524196e-14</leafValues></_>
        <_>
          <internalNodes>
            0 -1 186 -7.8138569369912148e-04</internalNodes>
          <leafValues>
            1. -9.9449198130555951e-15</leafValues></_>
        <_>
          <internalNodes>
            0 -1 34 -2.4909784769988619e-05</internalNodes>
          <leafValues>
            -1. -1.2269565314378290e-14</leafValues></_>
        <_>
          <internalNodes>
            0 -1 34 -9.3943893443793058e-04</internalNodes>
          <leafValues>
            1. 1.3017138805933044e-14</leafValues></_>
        <_>
          <internalNodes>
            0 -1 34 -1.0158774675801396e-03</internalNodes>
          <leafValues>
            -1. -1.7065826697767669e-14</leafValues></_>
        <_>
          <internalNodes>
            0 -1 34 -9.3943893443793058e-04</internalNodes>
          <leafValues>
            1. -9.2957334334891652e-15</leafValues></_>
        <_>
          <internalNodes>
            0 -1 34 -5.0596834626048803e-04</internalNodes>
          <leafValues>
            -1. 1.4500706001620636e-14</leafValues></_>
        <_>
          <internalNodes>
            0 -1 34 -9.3943893443793058e-04</internalNodes>
          <leafValues>
            1. -2.3929595555517019e-14</leafValues></_>
        <_>
          <internalNodes>
            0 -1 34 -5.0596834626048803e-04</internalNodes>
          <leafValues>
            -1. 1.5247441777590555e-14</leafValues></_>
        <_>
          <internalNodes>
            0 -1 34 -9.3943893443793058e-04</internalNodes>
          <leafValues>
