<?xml version="1.0"?>
<opencv_storage>
<cascade>
  <stageType>BOOST</stageType>
  <featureType>HAAR</featureType>
  <height>24</height>
  <width>24</width>
  <stageParams>
    <boostType>GAB</boostType>
    <minHitRate>9.9500000476837158e-01</minHitRate>
    <maxFalseAlarm>5.0000000000000000e-01</maxFalseAlarm>
    <weightTrimRate>9.4999998807907104e-01</weightTrimRate>
    <maxDepth>1</maxDepth>
    <maxWeakCount>100</maxWeakCount></stageParams>
  <featureParams>
    <maxCatCount>0</maxCatCount>
    <featSize>1</featSize>
    <mode>BASIC</mode></featureParams>
  <stageNum>1</stageNum>
  <stages>
    <!-- stage 0 -->
    <_>
      <maxWeakCount>13</maxWeakCount>
      <stageThreshold>-1.9580433368682861e+00</stageThreshold>
      <weakClassifiers>
        <_>
          <internalNodes>
            0 -1 6 -4.3173767626285553e-02</internalNodes>
          <leafValues>
            -4.6766167879104614e-01 -8.6719143390655518e-01</leafValues></_>
        <_>
          <internalNodes>
            0 -1 0 -2.1551521494984627e-02</internalNodes>
          <leafValues>
            6.5941825509071350e-02 -5.9766113758087158e-01</leafValues></_>
        <_>
          <internalNodes>
            0 -1 4 -3.6057412624359131e-02</internalNodes>
          <leafValues>
            4.6293967962265015e-01 -2.1702900528907776e-01</leafValues></_>
        <_>
          <internalNodes>
            0 -1 5 5.5605039000511169e-02</internalNodes>
          <leafValues>
            -2.0750388503074646e-01 4.7093027830123901e-01</leafValues></_>
        <_>
          <internalNodes>
            0 -1 8 7.6122526079416275e-03</internalNodes>
          <leafValues>
            -1.6370542347431183e-01 4.7874912619590759e-01</leafValues></_>
        <_>
          <internalNodes>
            0 -1 11 -7.8994205978233367e-05</internalNodes>
          <leafValues>
            3.3039081096649170e-01 -2.3324398696422577e-01</leafValues></_>
        <_>
          <internalNodes>
            0 -1 7 6.6971598425880075e-04</internalNodes>
          <leafValues>
            -1.6108213365077972e-01 4.5715552568435669e-01</leafValues></_>
        <_>
          <internalNodes>
            0 -1 2 5.4372998420149088e-05</internalNodes>
          <leafValues>
            -2.2951047122478485e-01 3.0919542908668518e-01</leafValues></_>
        <_>
          <internalNodes>
            0 -1 3 -2.8570767026394606e-03</internalNodes>
          <leafValues>
            4.5445394515991211e-01 -1.2768541276454926e-01</leafValues></_>
        <_>
          <internalNodes>
            0 -1 10 3.1254900386556983e-04</internalNodes>
          <leafValues>
            -1.4392520487308502e-01 3.9255386590957642e-01</leafValues></_>
        <_>
          <internalNodes>
            0 -1 9 3.1921728514134884e-03</internalNodes>
          <leafValues>
            -1.2644937634468079e-01 5.1911401748657227e-01</leafValues></_>
        <_>
          <internalNodes>
            0 -1 12 -4.9599777412367985e-05</internalNodes>
          <leafValues>
            2.3997229337692261e-01 -2.1186052262783051e-01</leafValues></_>
        <_>
          <internalNodes>
            0 -1 1 8.8822482211980969e-05</internalNodes>
          <leafValues>
            -1.8616090714931488e-01 2.5599068403244019e-01</leafValues></_></weakClassifiers></_></stages>
  <features>
    <_>
      <rects>
        <_>
          0 12 24 12 -1.</_>
        <_>
          0 18 24 6 2.</_></rects>
      <tilted>0</tilted></_>
    <_>
      <rects>
        <_>
          0 19 3 1 -1.</_>
        <_>
          1 19 1 1 3.</_></rects>
      <tilted>0</tilted></_>
    <_>
      <rects>
        <_>
          1 19 2 1 -1.</_>
        <_>
          2 19 1 1 2.</_></rects>
      <tilted>0</tilted></_>
    <_>
      <rects>
        <_>
          2 6 9 3 -1.</_>
        <_>
          2 7 9 1 3.</_></rects>
      <tilted>0</tilted></_>
    <_>
      <rects>
        <_>
          4 0 17 6 -1.</_>
        <_>
          4 3 17 3 2.</_></rects>
      <tilted>0</tilted></_>
    <_>
      <rects>
        <_>
          6 0 16 12 -1.</_>
        <_>
          6 4 16 4 3.</_></rects>
      <tilted>0</tilted></_>
    <_>
      <rects>
        <_>
          7 2 9 12 -1.</_>
        <_>
          7 8 9 6 2.</_></rects>
      <tilted>0</tilted></_>
    <_>
      <rects>
        <_>
          8 6 1 3 -1.</_>
        <_>
          8 7 1 1 3.</_></rects>
      <tilted>0</tilted></_>
    <_>
      <rects>
        <_>
          8 7 5 6 -1.</_>
        <_>
          8 9 5 2 3.</_></rects>
      <tilted>0</tilted></_>
    <_>
      <rects>
        <_>
          10 10 4 3 -1.</_>
        <_>
          10 11 4 1 3.</_></rects>
      <tilted>0</tilted></_>
    <_>
      <rects>
        <_>
          11 11 1 2 -1.</_>
        <_>
          11 12 1 1 2.</_></rects>
      <tilted>0</tilted></_>
    <_>
      <rects>
        <_>
          11 20 1 2 -1.</_>
        <_>
          11 21 1 1 2.</_></rects>
      <tilted>0</tilted></_>
    <_>
      <rects>
        <_>
          19 22 2 2 -1.</_>
        <_>
          19 23 2 1 2.</_></rects>
      <tilted>0</tilted></_></features></cascade>
</opencv_storage>
