<?xml version="1.0"?>
<opencv_storage>
<stage7>
  <maxWeakCount>17</maxWeakCount>
  <stageThreshold>-1.8822365999221802e+00</stageThreshold>
  <weakClassifiers>
    <_>
      <internalNodes>
        0 -1 117314 1.5874439477920532e-01</internalNodes>
      <leafValues>
        -9.6602565050125122e-01 1.4285714924335480e-01</leafValues></_>
    <_>
      <internalNodes>
        0 -1 39619 2.6717758178710938e-01</internalNodes>
      <leafValues>
        -8.0668574571609497e-01 3.5507026314735413e-01</leafValues></_>
    <_>
      <internalNodes>
        0 -1 69271 1.2204167433083057e-03</internalNodes>
      <leafValues>
        -5.0387126207351685e-01 1.4014504849910736e-01</leafValues></_>
    <_>
      <internalNodes>
        0 -1 8839 1.4283676864579320e-04</internalNodes>
      <leafValues>
        -4.7606736421585083e-01 2.3750443756580353e-01</leafValues></_>
    <_>
      <internalNodes>
        0 -1 127482 -2.0574619993567467e-03</internalNodes>
      <leafValues>
        -1. 1.0540043562650681e-01</leafValues></_>
    <_>
      <internalNodes>
        0 -1 62870 5.3923809900879860e-04</internalNodes>
      <leafValues>
        2.2991047799587250e-01 -4.6933138370513916e-01</leafValues></_>
    <_>
      <internalNodes>
        0 -1 49678 2.0990571007132530e-02</internalNodes>
      <leafValues>
        1.6278643906116486e-01 -7.3897022008895874e-01</leafValues></_>
    <_>
      <internalNodes>
        0 -1 5805 3.0094120651483536e-02</internalNodes>
      <leafValues>
        7.6331153512001038e-02 -9.0674620866775513e-01</leafValues></_>
    <_>
      <internalNodes>
        0 -1 39833 1.7998978495597839e-02</internalNodes>
      <leafValues>
        -1.8367409706115723e-01 6.3551533222198486e-01</leafValues></_>
    <_>
      <internalNodes>
        0 -1 117054 3.0416224617511034e-03</internalNodes>
      <leafValues>
        -2.3321421444416046e-01 4.3705120682716370e-01</leafValues></_>
    <_>
      <internalNodes>
        0 -1 159833 -6.2766484916210175e-04</internalNodes>
      <leafValues>
        3.8158479332923889e-01 -3.2766205072402954e-01</leafValues></_>
    <_>
      <internalNodes>
        0 -1 161336 3.8115051575005054e-03</internalNodes>
      <leafValues>
        1.2098897248506546e-01 -1.</leafValues></_>
    <_>
      <internalNodes>
        0 -1 70741 1.2182528153061867e-03</internalNodes>
      <leafValues>
        8.8914863765239716e-02 -8.1196212768554688e-01</leafValues></_>
    <_>
      <internalNodes>
        0 -1 161873 9.6163268608506769e-05</internalNodes>
      <leafValues>
        -3.6083406209945679e-01 2.7889242768287659e-01</leafValues></_>
    <_>
      <internalNodes>
        0 -1 162297 8.2979921717196703e-04</internalNodes>
      <leafValues>
        -2.4534007906913757e-01 4.4379287958145142e-01</leafValues></_>
    <_>
      <internalNodes>
        0 -1 151805 9.7066704183816910e-03</internalNodes>
      <leafValues>
        1.4373339712619781e-01 -7.8305602073669434e-01</leafValues></_>
    <_>
      <internalNodes>
        0 -1 76273 3.8563110865652561e-04</internalNodes>
      <leafValues>
        1.5731647610664368e-01 -6.3267350196838379e-01</leafValues></_></weakClassifiers></stage7>
</opencv_storage>
